digraph Tree {
node [shape=box, style="filled", color="black", fontname="helvetica"] ;
edge [fontname="helvetica"] ;
0 [label="Goiter <= 0.5\ngini = 0.667\nsamples = 7879\nvalue = [2621, 2641, 2617]", fillcolor="#feffff"] ;
1 [label="Muscle_Weakness <= 0.5\ngini = 0.626\nsamples = 5444\nvalue = [2621.0, 1754.0, 1069.0]", fillcolor="#f9e1d0"] ;
0 -> 1 [labeldistance=2.5, labelangle=45, headlabel="True"] ;
2 [label="Sensitivity_to_Cold_or_Heat <= 0.5\ngini = 0.556\nsamples = 3547\nvalue = [2137, 821, 589]", fillcolor="#f2c29f"] ;
1 -> 2 ;
3 [label="Fatigue <= 0.5\ngini = 0.45\nsamples = 2438\nvalue = [1737, 400, 301]", fillcolor="#eeac7d"] ;
2 -> 3 ;
4 [label="Dry_or_Itchy_Skin <= 0.5\ngini = 0.325\nsamples = 1762\nvalue = [1427, 203, 132]", fillcolor="#eb9c64"] ;
3 -> 4 ;
5 [label="Constipation_or_More_Bowel_Movements <= 0.5\ngini = 0.213\nsamples = 1357\nvalue = [1198.0, 108.0, 51.0]", fillcolor="#e89152"] ;
4 -> 5 ;
6 [label="Hair_Loss <= 0.5\ngini = 0.127\nsamples = 1090\nvalue = [1017, 54, 19]", fillcolor="#e78a47"] ;
5 -> 6 ;
7 [label="Difficulty_Concentrating_or_Memory_Problems <= 0.5\ngini = 0.067\nsamples = 925\nvalue = [893, 21, 11]", fillcolor="#e68540"] ;
6 -> 7 ;
8 [label="Heart_Rate_Changes <= 0.5\ngini = 0.042\nsamples = 805\nvalue = [788, 9, 8]", fillcolor="#e6843d"] ;
7 -> 8 ;
9 [label="Weight_Change <= 0.5\ngini = 0.022\nsamples = 726\nvalue = [718, 4, 4]", fillcolor="#e5823b"] ;
8 -> 9 ;
10 [label="Age <= 87.5\ngini = 0.009\nsamples = 657\nvalue = [654, 3, 0]", fillcolor="#e5823a"] ;
9 -> 10 ;
11 [label="Depression_or_Anxiety <= 0.5\ngini = 0.006\nsamples = 630\nvalue = [628, 2, 0]", fillcolor="#e5813a"] ;
10 -> 11 ;
12 [label="Age <= 61.5\ngini = 0.003\nsamples = 574\nvalue = [573, 1, 0]", fillcolor="#e58139"] ;
11 -> 12 ;
13 [label="gini = 0.0\nsamples = 373\nvalue = [373, 0, 0]", fillcolor="#e58139"] ;
12 -> 13 ;
14 [label="Age <= 62.5\ngini = 0.01\nsamples = 201\nvalue = [200, 1, 0]", fillcolor="#e5823a"] ;
12 -> 14 ;
15 [label="Family_History_of_Thyroid <= 0.5\ngini = 0.32\nsamples = 5\nvalue = [4, 1, 0]", fillcolor="#eca06a"] ;
14 -> 15 ;
16 [label="gini = 0.444\nsamples = 3\nvalue = [2, 1, 0]", fillcolor="#f2c09c"] ;
15 -> 16 ;
17 [label="gini = 0.0\nsamples = 2\nvalue = [2, 0, 0]", fillcolor="#e58139"] ;
15 -> 17 ;
18 [label="gini = 0.0\nsamples = 196\nvalue = [196, 0, 0]", fillcolor="#e58139"] ;
14 -> 18 ;
19 [label="Family_History_of_Thyroid <= 0.5\ngini = 0.035\nsamples = 56\nvalue = [55, 1, 0]", fillcolor="#e5833d"] ;
11 -> 19 ;
20 [label="gini = 0.0\nsamples = 34\nvalue = [34, 0, 0]", fillcolor="#e58139"] ;
19 -> 20 ;
21 [label="Age <= 64.5\ngini = 0.087\nsamples = 22\nvalue = [21, 1, 0]", fillcolor="#e68742"] ;
19 -> 21 ;
22 [label="gini = 0.0\nsamples = 14\nvalue = [14, 0, 0]", fillcolor="#e58139"] ;
21 -> 22 ;
23 [label="Age <= 68.0\ngini = 0.219\nsamples = 8\nvalue = [7, 1, 0]", fillcolor="#e99355"] ;
21 -> 23 ;
24 [label="gini = 0.0\nsamples = 1\nvalue = [0, 1, 0]", fillcolor="#39e581"] ;
23 -> 24 ;
25 [label="gini = 0.0\nsamples = 7\nvalue = [7, 0, 0]", fillcolor="#e58139"] ;
23 -> 25 ;
26 [label="Family_History_of_Thyroid <= 0.5\ngini = 0.071\nsamples = 27\nvalue = [26, 1, 0]", fillcolor="#e68641"] ;
10 -> 26 ;
27 [label="Gender <= 0.5\ngini = 0.18\nsamples = 10\nvalue = [9, 1, 0]", fillcolor="#e88f4f"] ;
26 -> 27 ;
28 [label="gini = 0.0\nsamples = 6\nvalue = [6, 0, 0]", fillcolor="#e58139"] ;
27 -> 28 ;
29 [label="Age <= 88.5\ngini = 0.375\nsamples = 4\nvalue = [3, 1, 0]", fillcolor="#eeab7b"] ;
27 -> 29 ;
30 [label="gini = 0.0\nsamples = 1\nvalue = [0, 1, 0]", fillcolor="#39e581"] ;
29 -> 30 ;
31 [label="gini = 0.0\nsamples = 3\nvalue = [3, 0, 0]", fillcolor="#e58139"] ;
29 -> 31 ;
32 [label="gini = 0.0\nsamples = 17\nvalue = [17, 0, 0]", fillcolor="#e58139"] ;
26 -> 32 ;
33 [label="Depression_or_Anxiety <= 0.5\ngini = 0.136\nsamples = 69\nvalue = [64, 1, 4]", fillcolor="#e78b48"] ;
9 -> 33 ;
34 [label="Increased_Sweating <= 0.5\ngini = 0.065\nsamples = 59\nvalue = [57, 0, 2]", fillcolor="#e68540"] ;
33 -> 34 ;
35 [label="gini = 0.0\nsamples = 48\nvalue = [48, 0, 0]", fillcolor="#e58139"] ;
34 -> 35 ;
36 [label="Age <= 37.5\ngini = 0.298\nsamples = 11\nvalue = [9, 0, 2]", fillcolor="#eb9d65"] ;
34 -> 36 ;
37 [label="gini = 0.0\nsamples = 6\nvalue = [6, 0, 0]", fillcolor="#e58139"] ;
36 -> 37 ;
38 [label="Age <= 73.0\ngini = 0.48\nsamples = 5\nvalue = [3, 0, 2]", fillcolor="#f6d5bd"] ;
36 -> 38 ;
39 [label="gini = 0.0\nsamples = 2\nvalue = [0, 0, 2]", fillcolor="#8139e5"] ;
38 -> 39 ;
40 [label="gini = 0.0\nsamples = 3\nvalue = [3, 0, 0]", fillcolor="#e58139"] ;
38 -> 40 ;
41 [label="Family_History_of_Thyroid <= 0.5\ngini = 0.46\nsamples = 10\nvalue = [7, 1, 2]", fillcolor="#efb083"] ;
33 -> 41 ;
42 [label="Age <= 44.0\ngini = 0.219\nsamples = 8\nvalue = [7, 1, 0]", fillcolor="#e99355"] ;
41 -> 42 ;
43 [label="gini = 0.0\nsamples = 1\nvalue = [0, 1, 0]", fillcolor="#39e581"] ;
42 -> 43 ;
44 [label="gini = 0.0\nsamples = 7\nvalue = [7, 0, 0]", fillcolor="#e58139"] ;
42 -> 44 ;
45 [label="gini = 0.0\nsamples = 2\nvalue = [0, 0, 2]", fillcolor="#8139e5"] ;
41 -> 45 ;
46 [label="Age <= 32.0\ngini = 0.208\nsamples = 79\nvalue = [70, 5, 4]", fillcolor="#e89051"] ;
8 -> 46 ;
47 [label="Age <= 28.5\ngini = 0.595\nsamples = 11\nvalue = [6, 3, 2]", fillcolor="#f5d0b5"] ;
46 -> 47 ;
48 [label="Age <= 24.5\ngini = 0.375\nsamples = 8\nvalue = [6, 0, 2]", fillcolor="#eeab7b"] ;
47 -> 48 ;
49 [label="gini = 0.0\nsamples = 5\nvalue = [5, 0, 0]", fillcolor="#e58139"] ;
48 -> 49 ;
50 [label="Increased_Sweating <= 0.5\ngini = 0.444\nsamples = 3\nvalue = [1, 0, 2]", fillcolor="#c09cf2"] ;
48 -> 50 ;
51 [label="gini = 0.0\nsamples = 1\nvalue = [1, 0, 0]", fillcolor="#e58139"] ;
50 -> 51 ;
52 [label="gini = 0.0\nsamples = 2\nvalue = [0, 0, 2]", fillcolor="#8139e5"] ;
50 -> 52 ;
53 [label="gini = 0.0\nsamples = 3\nvalue = [0, 3, 0]", fillcolor="#39e581"] ;
47 -> 53 ;
54 [label="Depression_or_Anxiety <= 0.5\ngini = 0.112\nsamples = 68\nvalue = [64, 2, 2]", fillcolor="#e78945"] ;
46 -> 54 ;
55 [label="Age <= 59.0\ngini = 0.062\nsamples = 62\nvalue = [60, 2, 0]", fillcolor="#e68540"] ;
54 -> 55 ;
56 [label="Age <= 55.5\ngini = 0.114\nsamples = 33\nvalue = [31, 2, 0]", fillcolor="#e78946"] ;
55 -> 56 ;
57 [label="Increased_Sweating <= 0.5\ngini = 0.064\nsamples = 30\nvalue = [29, 1, 0]", fillcolor="#e68540"] ;
56 -> 57 ;
58 [label="gini = 0.0\nsamples = 23\nvalue = [23, 0, 0]", fillcolor="#e58139"] ;
57 -> 58 ;
59 [label="Family_History_of_Thyroid <= 0.5\ngini = 0.245\nsamples = 7\nvalue = [6, 1, 0]", fillcolor="#e9965a"] ;
57 -> 59 ;
60 [label="gini = 0.0\nsamples = 5\nvalue = [5, 0, 0]", fillcolor="#e58139"] ;
59 -> 60 ;
61 [label="Age <= 43.0\ngini = 0.5\nsamples = 2\nvalue = [1, 1, 0]", fillcolor="#ffffff"] ;
59 -> 61 ;
62 [label="gini = 0.0\nsamples = 1\nvalue = [1, 0, 0]", fillcolor="#e58139"] ;
61 -> 62 ;
63 [label="gini = 0.0\nsamples = 1\nvalue = [0, 1, 0]", fillcolor="#39e581"] ;
61 -> 63 ;
64 [label="gini = 0.444\nsamples = 3\nvalue = [2, 1, 0]", fillcolor="#f2c09c"] ;
56 -> 64 ;
65 [label="gini = 0.0\nsamples = 29\nvalue = [29, 0, 0]", fillcolor="#e58139"] ;
55 -> 65 ;
66 [label="Gender <= 0.5\ngini = 0.444\nsamples = 6\nvalue = [4, 0, 2]", fillcolor="#f2c09c"] ;
54 -> 66 ;
67 [label="gini = 0.0\nsamples = 3\nvalue = [3, 0, 0]", fillcolor="#e58139"] ;
66 -> 67 ;
68 [label="Weight_Change <= 0.5\ngini = 0.444\nsamples = 3\nvalue = [1, 0, 2]", fillcolor="#c09cf2"] ;
66 -> 68 ;
69 [label="gini = 0.0\nsamples = 2\nvalue = [0, 0, 2]", fillcolor="#8139e5"] ;
68 -> 69 ;
70 [label="gini = 0.0\nsamples = 1\nvalue = [1, 0, 0]", fillcolor="#e58139"] ;
68 -> 70 ;
71 [label="Age <= 40.5\ngini = 0.224\nsamples = 120\nvalue = [105, 12, 3]", fillcolor="#e99254"] ;
7 -> 71 ;
72 [label="gini = 0.0\nsamples = 31\nvalue = [31, 0, 0]", fillcolor="#e58139"] ;
71 -> 72 ;
73 [label="Age <= 69.5\ngini = 0.289\nsamples = 89\nvalue = [74, 12, 3]", fillcolor="#ea9a60"] ;
71 -> 73 ;
74 [label="Age <= 67.5\ngini = 0.41\nsamples = 38\nvalue = [28, 8, 2]", fillcolor="#eeab7b"] ;
73 -> 74 ;
75 [label="Increased_Sweating <= 0.5\ngini = 0.257\nsamples = 33\nvalue = [28, 5, 0]", fillcolor="#ea985c"] ;
74 -> 75 ;
76 [label="Age <= 65.5\ngini = 0.077\nsamples = 25\nvalue = [24, 1, 0]", fillcolor="#e68641"] ;
75 -> 76 ;
77 [label="gini = 0.0\nsamples = 19\nvalue = [19, 0, 0]", fillcolor="#e58139"] ;
76 -> 77 ;
78 [label="Weight_Change <= 0.5\ngini = 0.278\nsamples = 6\nvalue = [5, 1, 0]", fillcolor="#ea9a61"] ;
76 -> 78 ;
79 [label="gini = 0.0\nsamples = 5\nvalue = [5, 0, 0]", fillcolor="#e58139"] ;
78 -> 79 ;
80 [label="gini = 0.0\nsamples = 1\nvalue = [0, 1, 0]", fillcolor="#39e581"] ;
78 -> 80 ;
81 [label="Weight_Change <= 0.5\ngini = 0.5\nsamples = 8\nvalue = [4, 4, 0]", fillcolor="#ffffff"] ;
75 -> 81 ;
82 [label="gini = 0.0\nsamples = 2\nvalue = [0, 2, 0]", fillcolor="#39e581"] ;
81 -> 82 ;
83 [label="Heart_Rate_Changes <= 0.5\ngini = 0.444\nsamples = 6\nvalue = [4, 2, 0]", fillcolor="#f2c09c"] ;
81 -> 83 ;
84 [label="Age <= 55.0\ngini = 0.5\nsamples = 4\nvalue = [2, 2, 0]", fillcolor="#ffffff"] ;
83 -> 84 ;
85 [label="gini = 0.0\nsamples = 2\nvalue = [2, 0, 0]", fillcolor="#e58139"] ;
84 -> 85 ;
86 [label="gini = 0.0\nsamples = 2\nvalue = [0, 2, 0]", fillcolor="#39e581"] ;
84 -> 86 ;
87 [label="gini = 0.0\nsamples = 2\nvalue = [2, 0, 0]", fillcolor="#e58139"] ;
83 -> 87 ;
88 [label="Heart_Rate_Changes <= 0.5\ngini = 0.48\nsamples = 5\nvalue = [0, 3, 2]", fillcolor="#bdf6d5"] ;
74 -> 88 ;
89 [label="gini = 0.0\nsamples = 3\nvalue = [0, 3, 0]", fillcolor="#39e581"] ;
88 -> 89 ;
90 [label="gini = 0.0\nsamples = 2\nvalue = [0, 0, 2]", fillcolor="#8139e5"] ;
88 -> 90 ;
91 [label="Age <= 81.0\ngini = 0.18\nsamples = 51\nvalue = [46, 4, 1]", fillcolor="#e88e4e"] ;
73 -> 91 ;
92 [label="gini = 0.0\nsamples = 31\nvalue = [31, 0, 0]", fillcolor="#e58139"] ;
91 -> 92 ;
93 [label="Weight_Change <= 0.5\ngini = 0.395\nsamples = 20\nvalue = [15, 4, 1]", fillcolor="#eda877"] ;
91 -> 93 ;
94 [label="Age <= 82.5\ngini = 0.219\nsamples = 16\nvalue = [14, 2, 0]", fillcolor="#e99355"] ;
93 -> 94 ;
95 [label="Family_History_of_Thyroid <= 0.5\ngini = 0.5\nsamples = 2\nvalue = [1, 1, 0]", fillcolor="#ffffff"] ;
94 -> 95 ;
96 [label="gini = 0.0\nsamples = 1\nvalue = [1, 0, 0]", fillcolor="#e58139"] ;
95 -> 96 ;
97 [label="gini = 0.0\nsamples = 1\nvalue = [0, 1, 0]", fillcolor="#39e581"] ;
95 -> 97 ;
98 [label="Heart_Rate_Changes <= 0.5\ngini = 0.133\nsamples = 14\nvalue = [13, 1, 0]", fillcolor="#e78b48"] ;
94 -> 98 ;
99 [label="gini = 0.0\nsamples = 9\nvalue = [9, 0, 0]", fillcolor="#e58139"] ;
98 -> 99 ;
100 [label="Depression_or_Anxiety <= 0.5\ngini = 0.32\nsamples = 5\nvalue = [4, 1, 0]", fillcolor="#eca06a"] ;
98 -> 100 ;
101 [label="gini = 0.0\nsamples = 1\nvalue = [0, 1, 0]", fillcolor="#39e581"] ;
100 -> 101 ;
102 [label="gini = 0.0\nsamples = 4\nvalue = [4, 0, 0]", fillcolor="#e58139"] ;
100 -> 102 ;
103 [label="Family_History_of_Thyroid <= 0.5\ngini = 0.625\nsamples = 4\nvalue = [1, 2, 1]", fillcolor="#bdf6d5"] ;
93 -> 103 ;
104 [label="gini = 0.0\nsamples = 2\nvalue = [0, 2, 0]", fillcolor="#39e581"] ;
103 -> 104 ;
105 [label="Gender <= 0.5\ngini = 0.5\nsamples = 2\nvalue = [1, 0, 1]", fillcolor="#ffffff"] ;
103 -> 105 ;
106 [label="gini = 0.0\nsamples = 1\nvalue = [0, 0, 1]", fillcolor="#8139e5"] ;
105 -> 106 ;
107 [label="gini = 0.0\nsamples = 1\nvalue = [1, 0, 0]", fillcolor="#e58139"] ;
105 -> 107 ;
108 [label="Heart_Rate_Changes <= 0.5\ngini = 0.393\nsamples = 165\nvalue = [124.0, 33.0, 8.0]", fillcolor="#eda876"] ;
6 -> 108 ;
109 [label="Depression_or_Anxiety <= 0.5\ngini = 0.298\nsamples = 120\nvalue = [99, 17, 4]", fillcolor="#ea9b61"] ;
108 -> 109 ;
110 [label="Age <= 17.5\ngini = 0.169\nsamples = 77\nvalue = [70, 4, 3]", fillcolor="#e78d4c"] ;
109 -> 110 ;
111 [label="Age <= 15.5\ngini = 0.625\nsamples = 4\nvalue = [2, 1, 1]", fillcolor="#f6d5bd"] ;
110 -> 111 ;
112 [label="gini = 0.0\nsamples = 2\nvalue = [2, 0, 0]", fillcolor="#e58139"] ;
111 -> 112 ;
113 [label="Increased_Sweating <= 0.5\ngini = 0.5\nsamples = 2\nvalue = [0, 1, 1]", fillcolor="#ffffff"] ;
111 -> 113 ;
114 [label="gini = 0.0\nsamples = 1\nvalue = [0, 1, 0]", fillcolor="#39e581"] ;
113 -> 114 ;
115 [label="gini = 0.0\nsamples = 1\nvalue = [0, 0, 1]", fillcolor="#8139e5"] ;
113 -> 115 ;
116 [label="Difficulty_Concentrating_or_Memory_Problems <= 0.5\ngini = 0.13\nsamples = 73\nvalue = [68, 3, 2]", fillcolor="#e78a47"] ;
110 -> 116 ;
117 [label="Weight_Change <= 0.5\ngini = 0.09\nsamples = 64\nvalue = [61, 2, 1]", fillcolor="#e68743"] ;
116 -> 117 ;
118 [label="Pregnancy <= 0.5\ngini = 0.038\nsamples = 51\nvalue = [50, 1, 0]", fillcolor="#e6843d"] ;
117 -> 118 ;
119 [label="gini = 0.0\nsamples = 38\nvalue = [38, 0, 0]", fillcolor="#e58139"] ;
118 -> 119 ;
120 [label="Age <= 53.5\ngini = 0.142\nsamples = 13\nvalue = [12, 1, 0]", fillcolor="#e78c49"] ;
118 -> 120 ;
121 [label="gini = 0.0\nsamples = 7\nvalue = [7, 0, 0]", fillcolor="#e58139"] ;
120 -> 121 ;
122 [label="Age <= 64.0\ngini = 0.278\nsamples = 6\nvalue = [5, 1, 0]", fillcolor="#ea9a61"] ;
120 -> 122 ;
123 [label="gini = 0.444\nsamples = 3\nvalue = [2, 1, 0]", fillcolor="#f2c09c"] ;
122 -> 123 ;
124 [label="gini = 0.0\nsamples = 3\nvalue = [3, 0, 0]", fillcolor="#e58139"] ;
122 -> 124 ;
125 [label="Age <= 30.0\ngini = 0.272\nsamples = 13\nvalue = [11, 1, 1]", fillcolor="#e9965a"] ;
117 -> 125 ;
126 [label="gini = 0.0\nsamples = 1\nvalue = [0, 1, 0]", fillcolor="#39e581"] ;
125 -> 126 ;
127 [label="Family_History_of_Thyroid <= 0.5\ngini = 0.153\nsamples = 12\nvalue = [11, 0, 1]", fillcolor="#e78c4b"] ;
125 -> 127 ;
128 [label="gini = 0.0\nsamples = 10\nvalue = [10, 0, 0]", fillcolor="#e58139"] ;
127 -> 128 ;
129 [label="Age <= 60.5\ngini = 0.5\nsamples = 2\nvalue = [1, 0, 1]", fillcolor="#ffffff"] ;
127 -> 129 ;
130 [label="gini = 0.0\nsamples = 1\nvalue = [1, 0, 0]", fillcolor="#e58139"] ;
129 -> 130 ;
131 [label="gini = 0.0\nsamples = 1\nvalue = [0, 0, 1]", fillcolor="#8139e5"] ;
129 -> 131 ;
132 [label="Gender <= 0.5\ngini = 0.37\nsamples = 9\nvalue = [7, 1, 1]", fillcolor="#eca06a"] ;
116 -> 132 ;
133 [label="Pregnancy <= 0.5\ngini = 0.245\nsamples = 7\nvalue = [6, 1, 0]", fillcolor="#e9965a"] ;
132 -> 133 ;
134 [label="Family_History_of_Thyroid <= 0.5\ngini = 0.444\nsamples = 3\nvalue = [2, 1, 0]", fillcolor="#f2c09c"] ;
133 -> 134 ;
135 [label="Age <= 56.0\ngini = 0.5\nsamples = 2\nvalue = [1, 1, 0]", fillcolor="#ffffff"] ;
134 -> 135 ;
136 [label="gini = 0.0\nsamples = 1\nvalue = [0, 1, 0]", fillcolor="#39e581"] ;
135 -> 136 ;
137 [label="gini = 0.0\nsamples = 1\nvalue = [1, 0, 0]", fillcolor="#e58139"] ;
135 -> 137 ;
138 [label="gini = 0.0\nsamples = 1\nvalue = [1, 0, 0]", fillcolor="#e58139"] ;
134 -> 138 ;
139 [label="gini = 0.0\nsamples = 4\nvalue = [4, 0, 0]", fillcolor="#e58139"] ;
133 -> 139 ;
140 [label="Age <= 52.5\ngini = 0.5\nsamples = 2\nvalue = [1, 0, 1]", fillcolor="#ffffff"] ;
132 -> 140 ;
141 [label="gini = 0.0\nsamples = 1\nvalue = [1, 0, 0]", fillcolor="#e58139"] ;
140 -> 141 ;
142 [label="gini = 0.0\nsamples = 1\nvalue = [0, 0, 1]", fillcolor="#8139e5"] ;
140 -> 142 ;
143 [label="Age <= 56.0\ngini = 0.453\nsamples = 43\nvalue = [29, 13, 1]", fillcolor="#f1bc95"] ;
109 -> 143 ;
144 [label="Increased_Sweating <= 0.5\ngini = 0.31\nsamples = 22\nvalue = [18, 3, 1]", fillcolor="#ea9c63"] ;
143 -> 144 ;
145 [label="Weight_Change <= 0.5\ngini = 0.355\nsamples = 13\nvalue = [10, 3, 0]", fillcolor="#eda774"] ;
144 -> 145 ;
146 [label="Difficulty_Concentrating_or_Memory_Problems <= 0.5\ngini = 0.469\nsamples = 8\nvalue = [5, 3, 0]", fillcolor="#f5cdb0"] ;
145 -> 146 ;
147 [label="Age <= 34.0\ngini = 0.408\nsamples = 7\nvalue = [5, 2, 0]", fillcolor="#efb388"] ;
146 -> 147 ;
148 [label="gini = 0.0\nsamples = 3\nvalue = [3, 0, 0]", fillcolor="#e58139"] ;
147 -> 148 ;
149 [label="Gender <= 0.5\ngini = 0.5\nsamples = 4\nvalue = [2, 2, 0]", fillcolor="#ffffff"] ;
147 -> 149 ;
150 [label="gini = 0.0\nsamples = 1\nvalue = [0, 1, 0]", fillcolor="#39e581"] ;
149 -> 150 ;
151 [label="Age <= 37.0\ngini = 0.444\nsamples = 3\nvalue = [2, 1, 0]", fillcolor="#f2c09c"] ;
149 -> 151 ;
152 [label="gini = 0.0\nsamples = 1\nvalue = [0, 1, 0]", fillcolor="#39e581"] ;
151 -> 152 ;
153 [label="gini = 0.0\nsamples = 2\nvalue = [2, 0, 0]", fillcolor="#e58139"] ;
151 -> 153 ;
154 [label="gini = 0.0\nsamples = 1\nvalue = [0, 1, 0]", fillcolor="#39e581"] ;
146 -> 154 ;
155 [label="gini = 0.0\nsamples = 5\nvalue = [5, 0, 0]", fillcolor="#e58139"] ;
145 -> 155 ;
156 [label="Pregnancy <= 0.5\ngini = 0.198\nsamples = 9\nvalue = [8, 0, 1]", fillcolor="#e89152"] ;
144 -> 156 ;
157 [label="gini = 0.0\nsamples = 8\nvalue = [8, 0, 0]", fillcolor="#e58139"] ;
156 -> 157 ;
158 [label="gini = 0.0\nsamples = 1\nvalue = [0, 0, 1]", fillcolor="#8139e5"] ;
156 -> 158 ;
159 [label="Age <= 60.5\ngini = 0.499\nsamples = 21\nvalue = [11, 10, 0]", fillcolor="#fdf4ed"] ;
143 -> 159 ;
160 [label="gini = 0.0\nsamples = 5\nvalue = [0, 5, 0]", fillcolor="#39e581"] ;
159 -> 160 ;
161 [label="Age <= 82.0\ngini = 0.43\nsamples = 16\nvalue = [11, 5, 0]", fillcolor="#f1ba93"] ;
159 -> 161 ;
162 [label="Pregnancy <= 0.5\ngini = 0.198\nsamples = 9\nvalue = [8, 1, 0]", fillcolor="#e89152"] ;
161 -> 162 ;
163 [label="gini = 0.0\nsamples = 8\nvalue = [8, 0, 0]", fillcolor="#e58139"] ;
162 -> 163 ;
164 [label="gini = 0.0\nsamples = 1\nvalue = [0, 1, 0]", fillcolor="#39e581"] ;
162 -> 164 ;
165 [label="Age <= 86.0\ngini = 0.49\nsamples = 7\nvalue = [3, 4, 0]", fillcolor="#cef8e0"] ;
161 -> 165 ;
166 [label="gini = 0.0\nsamples = 3\nvalue = [0, 3, 0]", fillcolor="#39e581"] ;
165 -> 166 ;
167 [label="Age <= 89.0\ngini = 0.375\nsamples = 4\nvalue = [3, 1, 0]", fillcolor="#eeab7b"] ;
165 -> 167 ;
168 [label="gini = 0.0\nsamples = 3\nvalue = [3, 0, 0]", fillcolor="#e58139"] ;
167 -> 168 ;
169 [label="gini = 0.0\nsamples = 1\nvalue = [0, 1, 0]", fillcolor="#39e581"] ;
167 -> 169 ;
170 [label="Difficulty_Concentrating_or_Memory_Problems <= 0.5\ngini = 0.557\nsamples = 45\nvalue = [25, 16, 4]", fillcolor="#f7d8c2"] ;
108 -> 170 ;
171 [label="Age <= 37.5\ngini = 0.447\nsamples = 29\nvalue = [20, 8, 1]", fillcolor="#f0b78e"] ;
170 -> 171 ;
172 [label="gini = 0.0\nsamples = 9\nvalue = [9, 0, 0]", fillcolor="#e58139"] ;
171 -> 172 ;
173 [label="Age <= 76.0\ngini = 0.535\nsamples = 20\nvalue = [11, 8, 1]", fillcolor="#f8e0ce"] ;
171 -> 173 ;
174 [label="Gender <= 0.5\ngini = 0.556\nsamples = 13\nvalue = [5, 7, 1]", fillcolor="#cef8e0"] ;
173 -> 174 ;
175 [label="gini = 0.0\nsamples = 5\nvalue = [0, 5, 0]", fillcolor="#39e581"] ;
174 -> 175 ;
176 [label="Age <= 43.5\ngini = 0.531\nsamples = 8\nvalue = [5, 2, 1]", fillcolor="#f2c09c"] ;
174 -> 176 ;
177 [label="Increased_Sweating <= 0.5\ngini = 0.5\nsamples = 2\nvalue = [0, 1, 1]", fillcolor="#ffffff"] ;
176 -> 177 ;
178 [label="gini = 0.0\nsamples = 1\nvalue = [0, 1, 0]", fillcolor="#39e581"] ;
177 -> 178 ;
179 [label="gini = 0.0\nsamples = 1\nvalue = [0, 0, 1]", fillcolor="#8139e5"] ;
177 -> 179 ;
180 [label="Age <= 63.5\ngini = 0.278\nsamples = 6\nvalue = [5, 1, 0]", fillcolor="#ea9a61"] ;
176 -> 180 ;
181 [label="Weight_Change <= 0.5\ngini = 0.444\nsamples = 3\nvalue = [2, 1, 0]", fillcolor="#f2c09c"] ;
180 -> 181 ;
182 [label="gini = 0.0\nsamples = 1\nvalue = [0, 1, 0]", fillcolor="#39e581"] ;
181 -> 182 ;
183 [label="gini = 0.0\nsamples = 2\nvalue = [2, 0, 0]", fillcolor="#e58139"] ;
181 -> 183 ;
184 [label="gini = 0.0\nsamples = 3\nvalue = [3, 0, 0]", fillcolor="#e58139"] ;
180 -> 184 ;
185 [label="Age <= 87.0\ngini = 0.245\nsamples = 7\nvalue = [6, 1, 0]", fillcolor="#e9965a"] ;
173 -> 185 ;
186 [label="gini = 0.0\nsamples = 6\nvalue = [6, 0, 0]", fillcolor="#e58139"] ;
185 -> 186 ;
187 [label="gini = 0.0\nsamples = 1\nvalue = [0, 1, 0]", fillcolor="#39e581"] ;
185 -> 187 ;
188 [label="Depression_or_Anxiety <= 0.5\ngini = 0.617\nsamples = 16\nvalue = [5, 8, 3]", fillcolor="#c9f8dd"] ;
170 -> 188 ;
189 [label="Age <= 26.0\ngini = 0.219\nsamples = 8\nvalue = [1, 7, 0]", fillcolor="#55e993"] ;
188 -> 189 ;
190 [label="Pregnancy <= 0.5\ngini = 0.5\nsamples = 2\nvalue = [1, 1, 0]", fillcolor="#ffffff"] ;
189 -> 190 ;
191 [label="gini = 0.0\nsamples = 1\nvalue = [1, 0, 0]", fillcolor="#e58139"] ;
190 -> 191 ;
192 [label="gini = 0.0\nsamples = 1\nvalue = [0, 1, 0]", fillcolor="#39e581"] ;
190 -> 192 ;
193 [label="gini = 0.0\nsamples = 6\nvalue = [0, 6, 0]", fillcolor="#39e581"] ;
189 -> 193 ;
194 [label="Age <= 23.0\ngini = 0.594\nsamples = 8\nvalue = [4, 1, 3]", fillcolor="#fae6d7"] ;
188 -> 194 ;
195 [label="gini = 0.0\nsamples = 2\nvalue = [2, 0, 0]", fillcolor="#e58139"] ;
194 -> 195 ;
196 [label="Age <= 41.5\ngini = 0.611\nsamples = 6\nvalue = [2, 1, 3]", fillcolor="#e0cef8"] ;
194 -> 196 ;
197 [label="gini = 0.0\nsamples = 3\nvalue = [0, 0, 3]", fillcolor="#8139e5"] ;
196 -> 197 ;
198 [label="Increased_Sweating <= 0.5\ngini = 0.444\nsamples = 3\nvalue = [2, 1, 0]", fillcolor="#f2c09c"] ;
196 -> 198 ;
199 [label="gini = 0.0\nsamples = 1\nvalue = [0, 1, 0]", fillcolor="#39e581"] ;
198 -> 199 ;
200 [label="gini = 0.0\nsamples = 2\nvalue = [2, 0, 0]", fillcolor="#e58139"] ;
198 -> 200 ;
201 [label="Difficulty_Concentrating_or_Memory_Problems <= 0.5\ngini = 0.485\nsamples = 267\nvalue = [181, 54, 32]", fillcolor="#efb489"] ;
5 -> 201 ;
202 [label="Increased_Sweating <= 0.5\ngini = 0.337\nsamples = 157\nvalue = [125, 26, 6]", fillcolor="#eba069"] ;
201 -> 202 ;
203 [label="Age <= 35.5\ngini = 0.251\nsamples = 125\nvalue = [107, 16, 2]", fillcolor="#e9965a"] ;
202 -> 203 ;
204 [label="Heart_Rate_Changes <= 0.5\ngini = 0.469\nsamples = 24\nvalue = [16, 7, 1]", fillcolor="#f1bc96"] ;
203 -> 204 ;
205 [label="Weight_Change <= 0.5\ngini = 0.227\nsamples = 16\nvalue = [14, 1, 1]", fillcolor="#e89253"] ;
204 -> 205 ;
206 [label="gini = 0.0\nsamples = 14\nvalue = [14, 0, 0]", fillcolor="#e58139"] ;
205 -> 206 ;
207 [label="Hair_Loss <= 0.5\ngini = 0.5\nsamples = 2\nvalue = [0, 1, 1]", fillcolor="#ffffff"] ;
205 -> 207 ;
208 [label="gini = 0.0\nsamples = 1\nvalue = [0, 1, 0]", fillcolor="#39e581"] ;
207 -> 208 ;
209 [label="gini = 0.0\nsamples = 1\nvalue = [0, 0, 1]", fillcolor="#8139e5"] ;
207 -> 209 ;
210 [label="Age <= 31.5\ngini = 0.375\nsamples = 8\nvalue = [2, 6, 0]", fillcolor="#7beeab"] ;
204 -> 210 ;
211 [label="Gender <= 0.5\ngini = 0.5\nsamples = 4\nvalue = [2, 2, 0]", fillcolor="#ffffff"] ;
210 -> 211 ;
212 [label="Family_History_of_Thyroid <= 0.5\ngini = 0.444\nsamples = 3\nvalue = [1, 2, 0]", fillcolor="#9cf2c0"] ;
211 -> 212 ;
213 [label="gini = 0.0\nsamples = 2\nvalue = [0, 2, 0]", fillcolor="#39e581"] ;
212 -> 213 ;
214 [label="gini = 0.0\nsamples = 1\nvalue = [1, 0, 0]", fillcolor="#e58139"] ;
212 -> 214 ;
215 [label="gini = 0.0\nsamples = 1\nvalue = [1, 0, 0]", fillcolor="#e58139"] ;
211 -> 215 ;
216 [label="gini = 0.0\nsamples = 4\nvalue = [0, 4, 0]", fillcolor="#39e581"] ;
210 -> 216 ;
217 [label="Age <= 74.5\ngini = 0.18\nsamples = 101\nvalue = [91, 9, 1]", fillcolor="#e88f4f"] ;
203 -> 217 ;
218 [label="Age <= 49.5\ngini = 0.139\nsamples = 81\nvalue = [75, 5, 1]", fillcolor="#e78b49"] ;
217 -> 218 ;
219 [label="Age <= 46.5\ngini = 0.245\nsamples = 28\nvalue = [24, 4, 0]", fillcolor="#e9965a"] ;
218 -> 219 ;
220 [label="Pregnancy <= 0.5\ngini = 0.147\nsamples = 25\nvalue = [23, 2, 0]", fillcolor="#e78c4a"] ;
219 -> 220 ;
221 [label="gini = 0.0\nsamples = 20\nvalue = [20, 0, 0]", fillcolor="#e58139"] ;
220 -> 221 ;
222 [label="Hair_Loss <= 0.5\ngini = 0.48\nsamples = 5\nvalue = [3, 2, 0]", fillcolor="#f6d5bd"] ;
220 -> 222 ;
223 [label="gini = 0.0\nsamples = 2\nvalue = [2, 0, 0]", fillcolor="#e58139"] ;
222 -> 223 ;
224 [label="Heart_Rate_Changes <= 0.5\ngini = 0.444\nsamples = 3\nvalue = [1, 2, 0]", fillcolor="#9cf2c0"] ;
222 -> 224 ;
225 [label="gini = 0.0\nsamples = 1\nvalue = [0, 1, 0]", fillcolor="#39e581"] ;
224 -> 225 ;
226 [label="Family_History_of_Thyroid <= 0.5\ngini = 0.5\nsamples = 2\nvalue = [1, 1, 0]", fillcolor="#ffffff"] ;
224 -> 226 ;
227 [label="gini = 0.0\nsamples = 1\nvalue = [1, 0, 0]", fillcolor="#e58139"] ;
226 -> 227 ;
228 [label="gini = 0.0\nsamples = 1\nvalue = [0, 1, 0]", fillcolor="#39e581"] ;
226 -> 228 ;
229 [label="Age <= 47.5\ngini = 0.444\nsamples = 3\nvalue = [1, 2, 0]", fillcolor="#9cf2c0"] ;
219 -> 229 ;
230 [label="gini = 0.0\nsamples = 1\nvalue = [0, 1, 0]", fillcolor="#39e581"] ;
229 -> 230 ;
231 [label="Gender <= 0.5\ngini = 0.5\nsamples = 2\nvalue = [1, 1, 0]", fillcolor="#ffffff"] ;
229 -> 231 ;
232 [label="gini = 0.0\nsamples = 1\nvalue = [0, 1, 0]", fillcolor="#39e581"] ;
231 -> 232 ;
233 [label="gini = 0.0\nsamples = 1\nvalue = [1, 0, 0]", fillcolor="#e58139"] ;
231 -> 233 ;
234 [label="Age <= 64.5\ngini = 0.073\nsamples = 53\nvalue = [51, 1, 1]", fillcolor="#e68641"] ;
218 -> 234 ;
235 [label="gini = 0.0\nsamples = 37\nvalue = [37, 0, 0]", fillcolor="#e58139"] ;
234 -> 235 ;
236 [label="Depression_or_Anxiety <= 0.5\ngini = 0.227\nsamples = 16\nvalue = [14, 1, 1]", fillcolor="#e89253"] ;
234 -> 236 ;
237 [label="Heart_Rate_Changes <= 0.5\ngini = 0.133\nsamples = 14\nvalue = [13, 0, 1]", fillcolor="#e78b48"] ;
236 -> 237 ;
238 [label="gini = 0.0\nsamples = 12\nvalue = [12, 0, 0]", fillcolor="#e58139"] ;
237 -> 238 ;
239 [label="Age <= 71.0\ngini = 0.5\nsamples = 2\nvalue = [1, 0, 1]", fillcolor="#ffffff"] ;
237 -> 239 ;
240 [label="gini = 0.0\nsamples = 1\nvalue = [0, 0, 1]", fillcolor="#8139e5"] ;
239 -> 240 ;
241 [label="gini = 0.0\nsamples = 1\nvalue = [1, 0, 0]", fillcolor="#e58139"] ;
239 -> 241 ;
242 [label="Age <= 68.5\ngini = 0.5\nsamples = 2\nvalue = [1, 1, 0]", fillcolor="#ffffff"] ;
236 -> 242 ;
243 [label="gini = 0.0\nsamples = 1\nvalue = [0, 1, 0]", fillcolor="#39e581"] ;
242 -> 243 ;
244 [label="gini = 0.0\nsamples = 1\nvalue = [1, 0, 0]", fillcolor="#e58139"] ;
242 -> 244 ;
245 [label="Age <= 75.5\ngini = 0.32\nsamples = 20\nvalue = [16, 4, 0]", fillcolor="#eca06a"] ;
217 -> 245 ;
246 [label="gini = 0.0\nsamples = 3\nvalue = [0, 3, 0]", fillcolor="#39e581"] ;
245 -> 246 ;
247 [label="Weight_Change <= 0.5\ngini = 0.111\nsamples = 17\nvalue = [16, 1, 0]", fillcolor="#e78945"] ;
245 -> 247 ;
248 [label="gini = 0.0\nsamples = 15\nvalue = [15, 0, 0]", fillcolor="#e58139"] ;
247 -> 248 ;
249 [label="Age <= 81.0\ngini = 0.5\nsamples = 2\nvalue = [1, 1, 0]", fillcolor="#ffffff"] ;
247 -> 249 ;
250 [label="gini = 0.0\nsamples = 1\nvalue = [1, 0, 0]", fillcolor="#e58139"] ;
249 -> 250 ;
251 [label="gini = 0.0\nsamples = 1\nvalue = [0, 1, 0]", fillcolor="#39e581"] ;
249 -> 251 ;
252 [label="Age <= 19.5\ngini = 0.57\nsamples = 32\nvalue = [18, 10, 4]", fillcolor="#f6d1b7"] ;
202 -> 252 ;
253 [label="gini = 0.0\nsamples = 2\nvalue = [0, 2, 0]", fillcolor="#39e581"] ;
252 -> 253 ;
254 [label="Depression_or_Anxiety <= 0.5\ngini = 0.551\nsamples = 30\nvalue = [18, 8, 4]", fillcolor="#f3c6a5"] ;
252 -> 254 ;
255 [label="Age <= 23.0\ngini = 0.364\nsamples = 18\nvalue = [14, 3, 1]", fillcolor="#eca36e"] ;
254 -> 255 ;
256 [label="gini = 0.0\nsamples = 1\nvalue = [0, 0, 1]", fillcolor="#8139e5"] ;
255 -> 256 ;
257 [label="Heart_Rate_Changes <= 0.5\ngini = 0.291\nsamples = 17\nvalue = [14, 3, 0]", fillcolor="#eb9c63"] ;
255 -> 257 ;
258 [label="Age <= 46.5\ngini = 0.142\nsamples = 13\nvalue = [12, 1, 0]", fillcolor="#e78c49"] ;
257 -> 258 ;
259 [label="gini = 0.0\nsamples = 7\nvalue = [7, 0, 0]", fillcolor="#e58139"] ;
258 -> 259 ;
260 [label="Age <= 54.0\ngini = 0.278\nsamples = 6\nvalue = [5, 1, 0]", fillcolor="#ea9a61"] ;
258 -> 260 ;
261 [label="gini = 0.0\nsamples = 1\nvalue = [0, 1, 0]", fillcolor="#39e581"] ;
260 -> 261 ;
262 [label="gini = 0.0\nsamples = 5\nvalue = [5, 0, 0]", fillcolor="#e58139"] ;
260 -> 262 ;
263 [label="Weight_Change <= 0.5\ngini = 0.5\nsamples = 4\nvalue = [2, 2, 0]", fillcolor="#ffffff"] ;
257 -> 263 ;
264 [label="gini = 0.0\nsamples = 2\nvalue = [0, 2, 0]", fillcolor="#39e581"] ;
263 -> 264 ;
265 [label="gini = 0.0\nsamples = 2\nvalue = [2, 0, 0]", fillcolor="#e58139"] ;
263 -> 265 ;
266 [label="Age <= 85.5\ngini = 0.653\nsamples = 12\nvalue = [4, 5, 3]", fillcolor="#e6fcef"] ;
254 -> 266 ;
267 [label="Hair_Loss <= 0.5\ngini = 0.642\nsamples = 9\nvalue = [4, 2, 3]", fillcolor="#fbeade"] ;
266 -> 267 ;
268 [label="Weight_Change <= 0.5\ngini = 0.49\nsamples = 7\nvalue = [4, 0, 3]", fillcolor="#f8e0ce"] ;
267 -> 268 ;
269 [label="gini = 0.0\nsamples = 3\nvalue = [3, 0, 0]", fillcolor="#e58139"] ;
268 -> 269 ;
270 [label="Age <= 25.0\ngini = 0.375\nsamples = 4\nvalue = [1, 0, 3]", fillcolor="#ab7bee"] ;
268 -> 270 ;
271 [label="gini = 0.0\nsamples = 1\nvalue = [1, 0, 0]", fillcolor="#e58139"] ;
270 -> 271 ;
272 [label="gini = 0.0\nsamples = 3\nvalue = [0, 0, 3]", fillcolor="#8139e5"] ;
270 -> 272 ;
273 [label="gini = 0.0\nsamples = 2\nvalue = [0, 2, 0]", fillcolor="#39e581"] ;
267 -> 273 ;
274 [label="gini = 0.0\nsamples = 3\nvalue = [0, 3, 0]", fillcolor="#39e581"] ;
266 -> 274 ;
275 [label="Gender <= 0.5\ngini = 0.62\nsamples = 110\nvalue = [56.0, 28.0, 26.0]", fillcolor="#f6d4bb"] ;
201 -> 275 ;
276 [label="Age <= 26.5\ngini = 0.647\nsamples = 54\nvalue = [20, 22, 12]", fillcolor="#f3fdf8"] ;
275 -> 276 ;
277 [label="Heart_Rate_Changes <= 0.5\ngini = 0.595\nsamples = 11\nvalue = [3, 2, 6]", fillcolor="#d0b5f5"] ;
276 -> 277 ;
278 [label="Age <= 16.5\ngini = 0.48\nsamples = 5\nvalue = [3, 2, 0]", fillcolor="#f6d5bd"] ;
277 -> 278 ;
279 [label="gini = 0.0\nsamples = 3\nvalue = [3, 0, 0]", fillcolor="#e58139"] ;
278 -> 279 ;
280 [label="gini = 0.0\nsamples = 2\nvalue = [0, 2, 0]", fillcolor="#39e581"] ;
278 -> 280 ;
281 [label="gini = 0.0\nsamples = 6\nvalue = [0, 0, 6]", fillcolor="#8139e5"] ;
277 -> 281 ;
282 [label="Age <= 38.0\ngini = 0.608\nsamples = 43\nvalue = [17, 20, 6]", fillcolor="#e8fcf0"] ;
276 -> 282 ;
283 [label="Increased_Sweating <= 0.5\ngini = 0.355\nsamples = 13\nvalue = [3, 10, 0]", fillcolor="#74eda7"] ;
282 -> 283 ;
284 [label="gini = 0.0\nsamples = 8\nvalue = [0, 8, 0]", fillcolor="#39e581"] ;
283 -> 284 ;
285 [label="Weight_Change <= 0.5\ngini = 0.48\nsamples = 5\nvalue = [3, 2, 0]", fillcolor="#f6d5bd"] ;
283 -> 285 ;
286 [label="gini = 0.0\nsamples = 3\nvalue = [3, 0, 0]", fillcolor="#e58139"] ;
285 -> 286 ;
287 [label="gini = 0.0\nsamples = 2\nvalue = [0, 2, 0]", fillcolor="#39e581"] ;
285 -> 287 ;
288 [label="Heart_Rate_Changes <= 0.5\ngini = 0.631\nsamples = 30\nvalue = [14, 10, 6]", fillcolor="#fae6d7"] ;
282 -> 288 ;
289 [label="Hair_Loss <= 0.5\ngini = 0.375\nsamples = 12\nvalue = [9, 0, 3]", fillcolor="#eeab7b"] ;
288 -> 289 ;
290 [label="gini = 0.0\nsamples = 6\nvalue = [6, 0, 0]", fillcolor="#e58139"] ;
289 -> 290 ;
291 [label="Family_History_of_Thyroid <= 0.5\ngini = 0.5\nsamples = 6\nvalue = [3, 0, 3]", fillcolor="#ffffff"] ;
289 -> 291 ;
292 [label="gini = 0.0\nsamples = 2\nvalue = [0, 0, 2]", fillcolor="#8139e5"] ;
291 -> 292 ;
293 [label="Age <= 48.5\ngini = 0.375\nsamples = 4\nvalue = [3, 0, 1]", fillcolor="#eeab7b"] ;
291 -> 293 ;
294 [label="gini = 0.0\nsamples = 1\nvalue = [0, 0, 1]", fillcolor="#8139e5"] ;
293 -> 294 ;
295 [label="gini = 0.0\nsamples = 3\nvalue = [3, 0, 0]", fillcolor="#e58139"] ;
293 -> 295 ;
296 [label="Weight_Change <= 0.5\ngini = 0.586\nsamples = 18\nvalue = [5, 10, 3]", fillcolor="#b3f5cf"] ;
288 -> 296 ;
297 [label="Depression_or_Anxiety <= 0.5\ngini = 0.355\nsamples = 13\nvalue = [3, 10, 0]", fillcolor="#74eda7"] ;
296 -> 297 ;
298 [label="gini = 0.0\nsamples = 7\nvalue = [0, 7, 0]", fillcolor="#39e581"] ;
297 -> 298 ;
299 [label="Pregnancy <= 0.5\ngini = 0.5\nsamples = 6\nvalue = [3, 3, 0]", fillcolor="#ffffff"] ;
297 -> 299 ;
300 [label="gini = 0.0\nsamples = 2\nvalue = [2, 0, 0]", fillcolor="#e58139"] ;
299 -> 300 ;
301 [label="Age <= 54.0\ngini = 0.375\nsamples = 4\nvalue = [1, 3, 0]", fillcolor="#7beeab"] ;
299 -> 301 ;
302 [label="gini = 0.0\nsamples = 1\nvalue = [1, 0, 0]", fillcolor="#e58139"] ;
301 -> 302 ;
303 [label="gini = 0.0\nsamples = 3\nvalue = [0, 3, 0]", fillcolor="#39e581"] ;
301 -> 303 ;
304 [label="Family_History_of_Thyroid <= 0.5\ngini = 0.48\nsamples = 5\nvalue = [2, 0, 3]", fillcolor="#d5bdf6"] ;
296 -> 304 ;
305 [label="gini = 0.0\nsamples = 2\nvalue = [2, 0, 0]", fillcolor="#e58139"] ;
304 -> 305 ;
306 [label="gini = 0.0\nsamples = 3\nvalue = [0, 0, 3]", fillcolor="#8139e5"] ;
304 -> 306 ;
307 [label="Age <= 83.5\ngini = 0.513\nsamples = 56\nvalue = [36, 6, 14]", fillcolor="#f1bd97"] ;
275 -> 307 ;
308 [label="Increased_Sweating <= 0.5\ngini = 0.477\nsamples = 51\nvalue = [35, 6, 10]", fillcolor="#efb286"] ;
307 -> 308 ;
309 [label="Age <= 31.5\ngini = 0.21\nsamples = 26\nvalue = [23, 2, 1]", fillcolor="#e89152"] ;
308 -> 309 ;
310 [label="Heart_Rate_Changes <= 0.5\ngini = 0.56\nsamples = 5\nvalue = [3, 1, 1]", fillcolor="#f2c09c"] ;
309 -> 310 ;
311 [label="gini = 0.0\nsamples = 3\nvalue = [3, 0, 0]", fillcolor="#e58139"] ;
310 -> 311 ;
312 [label="Weight_Change <= 0.5\ngini = 0.5\nsamples = 2\nvalue = [0, 1, 1]", fillcolor="#ffffff"] ;
310 -> 312 ;
313 [label="gini = 0.0\nsamples = 1\nvalue = [0, 1, 0]", fillcolor="#39e581"] ;
312 -> 313 ;
314 [label="gini = 0.0\nsamples = 1\nvalue = [0, 0, 1]", fillcolor="#8139e5"] ;
312 -> 314 ;
315 [label="Age <= 66.0\ngini = 0.091\nsamples = 21\nvalue = [20, 1, 0]", fillcolor="#e68743"] ;
309 -> 315 ;
316 [label="gini = 0.0\nsamples = 16\nvalue = [16, 0, 0]", fillcolor="#e58139"] ;
315 -> 316 ;
317 [label="Age <= 71.0\ngini = 0.32\nsamples = 5\nvalue = [4, 1, 0]", fillcolor="#eca06a"] ;
315 -> 317 ;
318 [label="gini = 0.0\nsamples = 1\nvalue = [0, 1, 0]", fillcolor="#39e581"] ;
317 -> 318 ;
319 [label="gini = 0.0\nsamples = 4\nvalue = [4, 0, 0]", fillcolor="#e58139"] ;
317 -> 319 ;
320 [label="Age <= 75.5\ngini = 0.614\nsamples = 25\nvalue = [12, 4, 9]", fillcolor="#fae7da"] ;
308 -> 320 ;
321 [label="Weight_Change <= 0.5\ngini = 0.533\nsamples = 22\nvalue = [12, 1, 9]", fillcolor="#f9e2d1"] ;
320 -> 321 ;
322 [label="Family_History_of_Thyroid <= 0.5\ngini = 0.391\nsamples = 15\nvalue = [11, 0, 4]", fillcolor="#eeaf81"] ;
321 -> 322 ;
323 [label="Age <= 25.0\ngini = 0.5\nsamples = 8\nvalue = [4, 0, 4]", fillcolor="#ffffff"] ;
322 -> 323 ;
324 [label="gini = 0.0\nsamples = 2\nvalue = [2, 0, 0]", fillcolor="#e58139"] ;
323 -> 324 ;
325 [label="Age <= 66.0\ngini = 0.444\nsamples = 6\nvalue = [2, 0, 4]", fillcolor="#c09cf2"] ;
323 -> 325 ;
326 [label="gini = 0.0\nsamples = 4\nvalue = [0, 0, 4]", fillcolor="#8139e5"] ;
325 -> 326 ;
327 [label="gini = 0.0\nsamples = 2\nvalue = [2, 0, 0]", fillcolor="#e58139"] ;
325 -> 327 ;
328 [label="gini = 0.0\nsamples = 7\nvalue = [7, 0, 0]", fillcolor="#e58139"] ;
322 -> 328 ;
329 [label="Heart_Rate_Changes <= 0.5\ngini = 0.449\nsamples = 7\nvalue = [1, 1, 5]", fillcolor="#ab7bee"] ;
321 -> 329 ;
330 [label="Age <= 51.0\ngini = 0.278\nsamples = 6\nvalue = [1, 0, 5]", fillcolor="#9a61ea"] ;
329 -> 330 ;
331 [label="gini = 0.0\nsamples = 4\nvalue = [0, 0, 4]", fillcolor="#8139e5"] ;
330 -> 331 ;
332 [label="Depression_or_Anxiety <= 0.5\ngini = 0.5\nsamples = 2\nvalue = [1, 0, 1]", fillcolor="#ffffff"] ;
330 -> 332 ;
333 [label="gini = 0.0\nsamples = 1\nvalue = [1, 0, 0]", fillcolor="#e58139"] ;
332 -> 333 ;
334 [label="gini = 0.0\nsamples = 1\nvalue = [0, 0, 1]", fillcolor="#8139e5"] ;
332 -> 334 ;
335 [label="gini = 0.0\nsamples = 1\nvalue = [0, 1, 0]", fillcolor="#39e581"] ;
329 -> 335 ;
336 [label="gini = 0.0\nsamples = 3\nvalue = [0, 3, 0]", fillcolor="#39e581"] ;
320 -> 336 ;
337 [label="Hair_Loss <= 0.5\ngini = 0.32\nsamples = 5\nvalue = [1, 0, 4]", fillcolor="#a06aec"] ;
307 -> 337 ;
338 [label="gini = 0.0\nsamples = 1\nvalue = [1, 0, 0]", fillcolor="#e58139"] ;
337 -> 338 ;
339 [label="gini = 0.0\nsamples = 4\nvalue = [0, 0, 4]", fillcolor="#8139e5"] ;
337 -> 339 ;
340 [label="Constipation_or_More_Bowel_Movements <= 0.5\ngini = 0.585\nsamples = 405\nvalue = [229, 95, 81]", fillcolor="#f4c9a9"] ;
4 -> 340 ;
341 [label="Heart_Rate_Changes <= 0.5\ngini = 0.5\nsamples = 267\nvalue = [178.0, 47.0, 42.0]", fillcolor="#f0b489"] ;
340 -> 341 ;
342 [label="Age <= 22.5\ngini = 0.383\nsamples = 172\nvalue = [132, 24, 16]", fillcolor="#eca36f"] ;
341 -> 342 ;
343 [label="Difficulty_Concentrating_or_Memory_Problems <= 0.5\ngini = 0.615\nsamples = 19\nvalue = [9, 3, 7]", fillcolor="#fbeade"] ;
342 -> 343 ;
344 [label="Weight_Change <= 0.5\ngini = 0.52\nsamples = 14\nvalue = [9, 3, 2]", fillcolor="#f1ba93"] ;
343 -> 344 ;
345 [label="Gender <= 0.5\ngini = 0.397\nsamples = 11\nvalue = [8, 3, 0]", fillcolor="#efb083"] ;
344 -> 345 ;
346 [label="gini = 0.0\nsamples = 5\nvalue = [5, 0, 0]", fillcolor="#e58139"] ;
345 -> 346 ;
347 [label="Age <= 17.0\ngini = 0.5\nsamples = 6\nvalue = [3, 3, 0]", fillcolor="#ffffff"] ;
345 -> 347 ;
348 [label="gini = 0.0\nsamples = 2\nvalue = [2, 0, 0]", fillcolor="#e58139"] ;
347 -> 348 ;
349 [label="Age <= 19.5\ngini = 0.375\nsamples = 4\nvalue = [1, 3, 0]", fillcolor="#7beeab"] ;
347 -> 349 ;
350 [label="Hair_Loss <= 0.5\ngini = 0.5\nsamples = 2\nvalue = [1, 1, 0]", fillcolor="#ffffff"] ;
349 -> 350 ;
351 [label="gini = 0.0\nsamples = 1\nvalue = [1, 0, 0]", fillcolor="#e58139"] ;
350 -> 351 ;
352 [label="gini = 0.0\nsamples = 1\nvalue = [0, 1, 0]", fillcolor="#39e581"] ;
350 -> 352 ;
353 [label="gini = 0.0\nsamples = 2\nvalue = [0, 2, 0]", fillcolor="#39e581"] ;
349 -> 353 ;
354 [label="Age <= 18.0\ngini = 0.444\nsamples = 3\nvalue = [1, 0, 2]", fillcolor="#c09cf2"] ;
344 -> 354 ;
355 [label="gini = 0.0\nsamples = 1\nvalue = [1, 0, 0]", fillcolor="#e58139"] ;
354 -> 355 ;
356 [label="gini = 0.0\nsamples = 2\nvalue = [0, 0, 2]", fillcolor="#8139e5"] ;
354 -> 356 ;
357 [label="gini = 0.0\nsamples = 5\nvalue = [0, 0, 5]", fillcolor="#8139e5"] ;
343 -> 357 ;
358 [label="Age <= 41.5\ngini = 0.331\nsamples = 153\nvalue = [123.0, 21.0, 9.0]", fillcolor="#eb9e66"] ;
342 -> 358 ;
359 [label="Increased_Sweating <= 0.5\ngini = 0.099\nsamples = 39\nvalue = [37, 1, 1]", fillcolor="#e68843"] ;
358 -> 359 ;
360 [label="gini = 0.0\nsamples = 31\nvalue = [31, 0, 0]", fillcolor="#e58139"] ;
359 -> 360 ;
361 [label="Difficulty_Concentrating_or_Memory_Problems <= 0.5\ngini = 0.406\nsamples = 8\nvalue = [6, 1, 1]", fillcolor="#eca572"] ;
359 -> 361 ;
362 [label="Weight_Change <= 0.5\ngini = 0.667\nsamples = 3\nvalue = [1, 1, 1]", fillcolor="#ffffff"] ;
361 -> 362 ;
363 [label="Age <= 30.0\ngini = 0.5\nsamples = 2\nvalue = [1, 0, 1]", fillcolor="#ffffff"] ;
362 -> 363 ;
364 [label="gini = 0.0\nsamples = 1\nvalue = [0, 0, 1]", fillcolor="#8139e5"] ;
363 -> 364 ;
365 [label="gini = 0.0\nsamples = 1\nvalue = [1, 0, 0]", fillcolor="#e58139"] ;
363 -> 365 ;
366 [label="gini = 0.0\nsamples = 1\nvalue = [0, 1, 0]", fillcolor="#39e581"] ;
362 -> 366 ;
367 [label="gini = 0.0\nsamples = 5\nvalue = [5, 0, 0]", fillcolor="#e58139"] ;
361 -> 367 ;
368 [label="Age <= 44.0\ngini = 0.395\nsamples = 114\nvalue = [86, 20, 8]", fillcolor="#eda774"] ;
358 -> 368 ;
369 [label="gini = 0.0\nsamples = 3\nvalue = [0, 0, 3]", fillcolor="#8139e5"] ;
368 -> 369 ;
370 [label="Hair_Loss <= 0.5\ngini = 0.365\nsamples = 111\nvalue = [86, 20, 5]", fillcolor="#eca46f"] ;
368 -> 370 ;
371 [label="Difficulty_Concentrating_or_Memory_Problems <= 0.5\ngini = 0.416\nsamples = 85\nvalue = [62, 19, 4]", fillcolor="#eead7e"] ;
370 -> 371 ;
372 [label="Age <= 54.0\ngini = 0.322\nsamples = 61\nvalue = [49, 11, 1]", fillcolor="#eb9f69"] ;
371 -> 372 ;
373 [label="Increased_Sweating <= 0.5\ngini = 0.494\nsamples = 9\nvalue = [4, 5, 0]", fillcolor="#d7fae6"] ;
372 -> 373 ;
374 [label="gini = 0.0\nsamples = 4\nvalue = [4, 0, 0]", fillcolor="#e58139"] ;
373 -> 374 ;
375 [label="gini = 0.0\nsamples = 5\nvalue = [0, 5, 0]", fillcolor="#39e581"] ;
373 -> 375 ;
376 [label="Depression_or_Anxiety <= 0.5\ngini = 0.237\nsamples = 52\nvalue = [45, 6, 1]", fillcolor="#e99457"] ;
372 -> 376 ;
377 [label="Age <= 58.5\ngini = 0.124\nsamples = 45\nvalue = [42, 3, 0]", fillcolor="#e78a47"] ;
376 -> 377 ;
378 [label="Family_History_of_Thyroid <= 0.5\ngini = 0.408\nsamples = 7\nvalue = [5, 2, 0]", fillcolor="#efb388"] ;
377 -> 378 ;
379 [label="gini = 0.0\nsamples = 2\nvalue = [0, 2, 0]", fillcolor="#39e581"] ;
378 -> 379 ;
380 [label="gini = 0.0\nsamples = 5\nvalue = [5, 0, 0]", fillcolor="#e58139"] ;
378 -> 380 ;
381 [label="Age <= 75.0\ngini = 0.051\nsamples = 38\nvalue = [37, 1, 0]", fillcolor="#e6843e"] ;
377 -> 381 ;
382 [label="gini = 0.0\nsamples = 20\nvalue = [20, 0, 0]", fillcolor="#e58139"] ;
381 -> 382 ;
383 [label="Age <= 79.5\ngini = 0.105\nsamples = 18\nvalue = [17, 1, 0]", fillcolor="#e78845"] ;
381 -> 383 ;
384 [label="gini = 0.0\nsamples = 1\nvalue = [0, 1, 0]", fillcolor="#39e581"] ;
383 -> 384 ;
385 [label="gini = 0.0\nsamples = 17\nvalue = [17, 0, 0]", fillcolor="#e58139"] ;
383 -> 385 ;
386 [label="Age <= 62.5\ngini = 0.612\nsamples = 7\nvalue = [3, 3, 1]", fillcolor="#ffffff"] ;
376 -> 386 ;
387 [label="gini = 0.0\nsamples = 2\nvalue = [2, 0, 0]", fillcolor="#e58139"] ;
386 -> 387 ;
388 [label="Age <= 80.5\ngini = 0.56\nsamples = 5\nvalue = [1, 3, 1]", fillcolor="#9cf2c0"] ;
386 -> 388 ;
389 [label="Increased_Sweating <= 0.5\ngini = 0.375\nsamples = 4\nvalue = [1, 3, 0]", fillcolor="#7beeab"] ;
388 -> 389 ;
390 [label="gini = 0.0\nsamples = 2\nvalue = [0, 2, 0]", fillcolor="#39e581"] ;
389 -> 390 ;
391 [label="Gender <= 0.5\ngini = 0.5\nsamples = 2\nvalue = [1, 1, 0]", fillcolor="#ffffff"] ;
389 -> 391 ;
392 [label="gini = 0.0\nsamples = 1\nvalue = [0, 1, 0]", fillcolor="#39e581"] ;
391 -> 392 ;
393 [label="gini = 0.0\nsamples = 1\nvalue = [1, 0, 0]", fillcolor="#e58139"] ;
391 -> 393 ;
394 [label="gini = 0.0\nsamples = 1\nvalue = [0, 0, 1]", fillcolor="#8139e5"] ;
388 -> 394 ;
395 [label="Age <= 85.5\ngini = 0.58\nsamples = 24\nvalue = [13, 8, 3]", fillcolor="#f7d8c1"] ;
371 -> 395 ;
396 [label="Gender <= 0.5\ngini = 0.54\nsamples = 21\nvalue = [13, 5, 3]", fillcolor="#f2c09c"] ;
395 -> 396 ;
397 [label="gini = 0.0\nsamples = 7\nvalue = [7, 0, 0]", fillcolor="#e58139"] ;
396 -> 397 ;
398 [label="Age <= 67.5\ngini = 0.643\nsamples = 14\nvalue = [6, 5, 3]", fillcolor="#fcf1e9"] ;
396 -> 398 ;
399 [label="gini = 0.0\nsamples = 4\nvalue = [4, 0, 0]", fillcolor="#e58139"] ;
398 -> 399 ;
400 [label="Weight_Change <= 0.5\ngini = 0.62\nsamples = 10\nvalue = [2, 5, 3]", fillcolor="#c6f8db"] ;
398 -> 400 ;
401 [label="gini = 0.0\nsamples = 3\nvalue = [0, 3, 0]", fillcolor="#39e581"] ;
400 -> 401 ;
402 [label="Age <= 74.0\ngini = 0.653\nsamples = 7\nvalue = [2, 2, 3]", fillcolor="#e6d7fa"] ;
400 -> 402 ;
403 [label="Age <= 71.5\ngini = 0.64\nsamples = 5\nvalue = [2, 2, 1]", fillcolor="#ffffff"] ;
402 -> 403 ;
404 [label="Age <= 70.0\ngini = 0.444\nsamples = 3\nvalue = [0, 2, 1]", fillcolor="#9cf2c0"] ;
403 -> 404 ;
405 [label="gini = 0.0\nsamples = 1\nvalue = [0, 0, 1]", fillcolor="#8139e5"] ;
404 -> 405 ;
406 [label="gini = 0.0\nsamples = 2\nvalue = [0, 2, 0]", fillcolor="#39e581"] ;
404 -> 406 ;
407 [label="gini = 0.0\nsamples = 2\nvalue = [2, 0, 0]", fillcolor="#e58139"] ;
403 -> 407 ;
408 [label="gini = 0.0\nsamples = 2\nvalue = [0, 0, 2]", fillcolor="#8139e5"] ;
402 -> 408 ;
409 [label="gini = 0.0\nsamples = 3\nvalue = [0, 3, 0]", fillcolor="#39e581"] ;
395 -> 409 ;
410 [label="Age <= 77.0\ngini = 0.145\nsamples = 26\nvalue = [24, 1, 1]", fillcolor="#e78b49"] ;
370 -> 410 ;
411 [label="gini = 0.0\nsamples = 14\nvalue = [14, 0, 0]", fillcolor="#e58139"] ;
410 -> 411 ;
412 [label="Age <= 79.5\ngini = 0.292\nsamples = 12\nvalue = [10, 1, 1]", fillcolor="#ea985d"] ;
410 -> 412 ;
413 [label="gini = 0.0\nsamples = 1\nvalue = [0, 1, 0]", fillcolor="#39e581"] ;
412 -> 413 ;
414 [label="Age <= 81.0\ngini = 0.165\nsamples = 11\nvalue = [10, 0, 1]", fillcolor="#e88e4d"] ;
412 -> 414 ;
415 [label="Family_History_of_Thyroid <= 0.5\ngini = 0.5\nsamples = 2\nvalue = [1, 0, 1]", fillcolor="#ffffff"] ;
414 -> 415 ;
416 [label="gini = 0.0\nsamples = 1\nvalue = [1, 0, 0]", fillcolor="#e58139"] ;
415 -> 416 ;
417 [label="gini = 0.0\nsamples = 1\nvalue = [0, 0, 1]", fillcolor="#8139e5"] ;
415 -> 417 ;
418 [label="gini = 0.0\nsamples = 9\nvalue = [9, 0, 0]", fillcolor="#e58139"] ;
414 -> 418 ;
419 [label="Age <= 83.5\ngini = 0.632\nsamples = 95\nvalue = [46, 23, 26]", fillcolor="#f7dac6"] ;
341 -> 419 ;
420 [label="Increased_Sweating <= 0.5\ngini = 0.617\nsamples = 87\nvalue = [44.0, 17.0, 26.0]", fillcolor="#f7dac5"] ;
419 -> 420 ;
421 [label="Pregnancy <= 0.5\ngini = 0.57\nsamples = 58\nvalue = [34, 13, 11]", fillcolor="#f3c4a3"] ;
420 -> 421 ;
422 [label="Hair_Loss <= 0.5\ngini = 0.452\nsamples = 39\nvalue = [27, 10, 2]", fillcolor="#f0b58b"] ;
421 -> 422 ;
423 [label="Age <= 68.0\ngini = 0.255\nsamples = 20\nvalue = [17, 3, 0]", fillcolor="#ea975c"] ;
422 -> 423 ;
424 [label="Age <= 41.5\ngini = 0.142\nsamples = 13\nvalue = [12, 1, 0]", fillcolor="#e78c49"] ;
423 -> 424 ;
425 [label="Age <= 37.5\ngini = 0.32\nsamples = 5\nvalue = [4, 1, 0]", fillcolor="#eca06a"] ;
424 -> 425 ;
426 [label="gini = 0.0\nsamples = 4\nvalue = [4, 0, 0]", fillcolor="#e58139"] ;
425 -> 426 ;
427 [label="gini = 0.0\nsamples = 1\nvalue = [0, 1, 0]", fillcolor="#39e581"] ;
425 -> 427 ;
428 [label="gini = 0.0\nsamples = 8\nvalue = [8, 0, 0]", fillcolor="#e58139"] ;
424 -> 428 ;
429 [label="Difficulty_Concentrating_or_Memory_Problems <= 0.5\ngini = 0.408\nsamples = 7\nvalue = [5, 2, 0]", fillcolor="#efb388"] ;
423 -> 429 ;
430 [label="Age <= 81.5\ngini = 0.444\nsamples = 3\nvalue = [1, 2, 0]", fillcolor="#9cf2c0"] ;
429 -> 430 ;
431 [label="gini = 0.0\nsamples = 2\nvalue = [0, 2, 0]", fillcolor="#39e581"] ;
430 -> 431 ;
432 [label="gini = 0.0\nsamples = 1\nvalue = [1, 0, 0]", fillcolor="#e58139"] ;
430 -> 432 ;
433 [label="gini = 0.0\nsamples = 4\nvalue = [4, 0, 0]", fillcolor="#e58139"] ;
429 -> 433 ;
434 [label="Gender <= 0.5\ngini = 0.576\nsamples = 19\nvalue = [10, 7, 2]", fillcolor="#f8e0ce"] ;
422 -> 434 ;
435 [label="Age <= 51.5\ngini = 0.529\nsamples = 11\nvalue = [7, 2, 2]", fillcolor="#f1b991"] ;
434 -> 435 ;
436 [label="Age <= 20.0\ngini = 0.245\nsamples = 7\nvalue = [6, 0, 1]", fillcolor="#e9965a"] ;
435 -> 436 ;
437 [label="gini = 0.444\nsamples = 3\nvalue = [2, 0, 1]", fillcolor="#f2c09c"] ;
436 -> 437 ;
438 [label="gini = 0.0\nsamples = 4\nvalue = [4, 0, 0]", fillcolor="#e58139"] ;
436 -> 438 ;
439 [label="Age <= 58.0\ngini = 0.625\nsamples = 4\nvalue = [1, 2, 1]", fillcolor="#bdf6d5"] ;
435 -> 439 ;
440 [label="gini = 0.0\nsamples = 1\nvalue = [0, 0, 1]", fillcolor="#8139e5"] ;
439 -> 440 ;
441 [label="Depression_or_Anxiety <= 0.5\ngini = 0.444\nsamples = 3\nvalue = [1, 2, 0]", fillcolor="#9cf2c0"] ;
439 -> 441 ;
442 [label="gini = 0.0\nsamples = 1\nvalue = [1, 0, 0]", fillcolor="#e58139"] ;
441 -> 442 ;
443 [label="gini = 0.0\nsamples = 2\nvalue = [0, 2, 0]", fillcolor="#39e581"] ;
441 -> 443 ;
444 [label="Age <= 38.5\ngini = 0.469\nsamples = 8\nvalue = [3, 5, 0]", fillcolor="#b0f5cd"] ;
434 -> 444 ;
445 [label="gini = 0.0\nsamples = 3\nvalue = [0, 3, 0]", fillcolor="#39e581"] ;
444 -> 445 ;
446 [label="Age <= 63.0\ngini = 0.48\nsamples = 5\nvalue = [3, 2, 0]", fillcolor="#f6d5bd"] ;
444 -> 446 ;
447 [label="gini = 0.0\nsamples = 2\nvalue = [2, 0, 0]", fillcolor="#e58139"] ;
446 -> 447 ;
448 [label="Age <= 70.0\ngini = 0.444\nsamples = 3\nvalue = [1, 2, 0]", fillcolor="#9cf2c0"] ;
446 -> 448 ;
449 [label="gini = 0.0\nsamples = 2\nvalue = [0, 2, 0]", fillcolor="#39e581"] ;
448 -> 449 ;
450 [label="gini = 0.0\nsamples = 1\nvalue = [1, 0, 0]", fillcolor="#e58139"] ;
448 -> 450 ;
451 [label="Age <= 65.5\ngini = 0.615\nsamples = 19\nvalue = [7, 3, 9]", fillcolor="#eadefb"] ;
421 -> 451 ;
452 [label="Age <= 56.5\ngini = 0.622\nsamples = 14\nvalue = [7, 3, 4]", fillcolor="#f7d9c4"] ;
451 -> 452 ;
453 [label="Difficulty_Concentrating_or_Memory_Problems <= 0.5\ngini = 0.642\nsamples = 9\nvalue = [3, 2, 4]", fillcolor="#eadefb"] ;
452 -> 453 ;
454 [label="Depression_or_Anxiety <= 0.5\ngini = 0.49\nsamples = 7\nvalue = [3, 0, 4]", fillcolor="#e0cef8"] ;
453 -> 454 ;
455 [label="Hair_Loss <= 0.5\ngini = 0.48\nsamples = 5\nvalue = [3, 0, 2]", fillcolor="#f6d5bd"] ;
454 -> 455 ;
456 [label="gini = 0.0\nsamples = 2\nvalue = [2, 0, 0]", fillcolor="#e58139"] ;
455 -> 456 ;
457 [label="Weight_Change <= 0.5\ngini = 0.444\nsamples = 3\nvalue = [1, 0, 2]", fillcolor="#c09cf2"] ;
455 -> 457 ;
458 [label="Age <= 47.5\ngini = 0.5\nsamples = 2\nvalue = [1, 0, 1]", fillcolor="#ffffff"] ;
457 -> 458 ;
459 [label="gini = 0.0\nsamples = 1\nvalue = [0, 0, 1]", fillcolor="#8139e5"] ;
458 -> 459 ;
460 [label="gini = 0.0\nsamples = 1\nvalue = [1, 0, 0]", fillcolor="#e58139"] ;
458 -> 460 ;
461 [label="gini = 0.0\nsamples = 1\nvalue = [0, 0, 1]", fillcolor="#8139e5"] ;
457 -> 461 ;
462 [label="gini = 0.0\nsamples = 2\nvalue = [0, 0, 2]", fillcolor="#8139e5"] ;
454 -> 462 ;
463 [label="gini = 0.0\nsamples = 2\nvalue = [0, 2, 0]", fillcolor="#39e581"] ;
453 -> 463 ;
464 [label="Weight_Change <= 0.5\ngini = 0.32\nsamples = 5\nvalue = [4, 1, 0]", fillcolor="#eca06a"] ;
452 -> 464 ;
465 [label="Difficulty_Concentrating_or_Memory_Problems <= 0.5\ngini = 0.5\nsamples = 2\nvalue = [1, 1, 0]", fillcolor="#ffffff"] ;
464 -> 465 ;
466 [label="gini = 0.0\nsamples = 1\nvalue = [0, 1, 0]", fillcolor="#39e581"] ;
465 -> 466 ;
467 [label="gini = 0.0\nsamples = 1\nvalue = [1, 0, 0]", fillcolor="#e58139"] ;
465 -> 467 ;
468 [label="gini = 0.0\nsamples = 3\nvalue = [3, 0, 0]", fillcolor="#e58139"] ;
464 -> 468 ;
469 [label="gini = 0.0\nsamples = 5\nvalue = [0, 0, 5]", fillcolor="#8139e5"] ;
451 -> 469 ;
470 [label="Pregnancy <= 0.5\ngini = 0.595\nsamples = 29\nvalue = [10.0, 4.0, 15.0]", fillcolor="#decbf8"] ;
420 -> 470 ;
471 [label="Family_History_of_Thyroid <= 0.5\ngini = 0.421\nsamples = 19\nvalue = [2, 3, 14]", fillcolor="#a877ed"] ;
470 -> 471 ;
472 [label="Age <= 27.0\ngini = 0.469\nsamples = 8\nvalue = [0, 3, 5]", fillcolor="#cdb0f5"] ;
471 -> 472 ;
473 [label="gini = 0.0\nsamples = 2\nvalue = [0, 2, 0]", fillcolor="#39e581"] ;
472 -> 473 ;
474 [label="Age <= 73.0\ngini = 0.278\nsamples = 6\nvalue = [0, 1, 5]", fillcolor="#9a61ea"] ;
472 -> 474 ;
475 [label="gini = 0.0\nsamples = 4\nvalue = [0, 0, 4]", fillcolor="#8139e5"] ;
474 -> 475 ;
476 [label="Age <= 78.5\ngini = 0.5\nsamples = 2\nvalue = [0, 1, 1]", fillcolor="#ffffff"] ;
474 -> 476 ;
477 [label="gini = 0.0\nsamples = 1\nvalue = [0, 1, 0]", fillcolor="#39e581"] ;
476 -> 477 ;
478 [label="gini = 0.0\nsamples = 1\nvalue = [0, 0, 1]", fillcolor="#8139e5"] ;
476 -> 478 ;
479 [label="Age <= 48.0\ngini = 0.298\nsamples = 11\nvalue = [2, 0, 9]", fillcolor="#9d65eb"] ;
471 -> 479 ;
480 [label="gini = 0.0\nsamples = 5\nvalue = [0, 0, 5]", fillcolor="#8139e5"] ;
479 -> 480 ;
481 [label="Age <= 63.5\ngini = 0.444\nsamples = 6\nvalue = [2, 0, 4]", fillcolor="#c09cf2"] ;
479 -> 481 ;
482 [label="Hair_Loss <= 0.5\ngini = 0.444\nsamples = 3\nvalue = [2, 0, 1]", fillcolor="#f2c09c"] ;
481 -> 482 ;
483 [label="gini = 0.0\nsamples = 2\nvalue = [2, 0, 0]", fillcolor="#e58139"] ;
482 -> 483 ;
484 [label="gini = 0.0\nsamples = 1\nvalue = [0, 0, 1]", fillcolor="#8139e5"] ;
482 -> 484 ;
485 [label="gini = 0.0\nsamples = 3\nvalue = [0, 0, 3]", fillcolor="#8139e5"] ;
481 -> 485 ;
486 [label="Depression_or_Anxiety <= 0.5\ngini = 0.34\nsamples = 10\nvalue = [8, 1, 1]", fillcolor="#eb9d65"] ;
470 -> 486 ;
487 [label="gini = 0.0\nsamples = 8\nvalue = [8, 0, 0]", fillcolor="#e58139"] ;
486 -> 487 ;
488 [label="Hair_Loss <= 0.5\ngini = 0.5\nsamples = 2\nvalue = [0, 1, 1]", fillcolor="#ffffff"] ;
486 -> 488 ;
489 [label="gini = 0.0\nsamples = 1\nvalue = [0, 0, 1]", fillcolor="#8139e5"] ;
488 -> 489 ;
490 [label="gini = 0.0\nsamples = 1\nvalue = [0, 1, 0]", fillcolor="#39e581"] ;
488 -> 490 ;
491 [label="Hair_Loss <= 0.5\ngini = 0.375\nsamples = 8\nvalue = [2, 6, 0]", fillcolor="#7beeab"] ;
419 -> 491 ;
492 [label="gini = 0.0\nsamples = 5\nvalue = [0, 5, 0]", fillcolor="#39e581"] ;
491 -> 492 ;
493 [label="Increased_Sweating <= 0.5\ngini = 0.444\nsamples = 3\nvalue = [2, 1, 0]", fillcolor="#f2c09c"] ;
491 -> 493 ;
494 [label="gini = 0.0\nsamples = 2\nvalue = [2, 0, 0]", fillcolor="#e58139"] ;
493 -> 494 ;
495 [label="gini = 0.0\nsamples = 1\nvalue = [0, 1, 0]", fillcolor="#39e581"] ;
493 -> 495 ;
496 [label="Weight_Change <= 0.5\ngini = 0.663\nsamples = 138\nvalue = [51, 48, 39]", fillcolor="#fefbf8"] ;
340 -> 496 ;
497 [label="Hair_Loss <= 0.5\ngini = 0.6\nsamples = 73\nvalue = [39, 21, 13]", fillcolor="#f6d3ba"] ;
496 -> 497 ;
498 [label="Gender <= 0.5\ngini = 0.491\nsamples = 40\nvalue = [27, 6, 7]", fillcolor="#efb387"] ;
497 -> 498 ;
499 [label="Depression_or_Anxiety <= 0.5\ngini = 0.598\nsamples = 19\nvalue = [10, 6, 3]", fillcolor="#f7d8c2"] ;
498 -> 499 ;
500 [label="Age <= 75.5\ngini = 0.292\nsamples = 12\nvalue = [10, 1, 1]", fillcolor="#ea985d"] ;
499 -> 500 ;
501 [label="Heart_Rate_Changes <= 0.5\ngini = 0.18\nsamples = 10\nvalue = [9, 0, 1]", fillcolor="#e88f4f"] ;
500 -> 501 ;
502 [label="gini = 0.0\nsamples = 8\nvalue = [8, 0, 0]", fillcolor="#e58139"] ;
501 -> 502 ;
503 [label="Increased_Sweating <= 0.5\ngini = 0.5\nsamples = 2\nvalue = [1, 0, 1]", fillcolor="#ffffff"] ;
501 -> 503 ;
504 [label="gini = 0.0\nsamples = 1\nvalue = [1, 0, 0]", fillcolor="#e58139"] ;
503 -> 504 ;
505 [label="gini = 0.0\nsamples = 1\nvalue = [0, 0, 1]", fillcolor="#8139e5"] ;
503 -> 505 ;
506 [label="Family_History_of_Thyroid <= 0.5\ngini = 0.5\nsamples = 2\nvalue = [1, 1, 0]", fillcolor="#ffffff"] ;
500 -> 506 ;
507 [label="gini = 0.0\nsamples = 1\nvalue = [0, 1, 0]", fillcolor="#39e581"] ;
506 -> 507 ;
508 [label="gini = 0.0\nsamples = 1\nvalue = [1, 0, 0]", fillcolor="#e58139"] ;
506 -> 508 ;
509 [label="Increased_Sweating <= 0.5\ngini = 0.408\nsamples = 7\nvalue = [0, 5, 2]", fillcolor="#88efb3"] ;
499 -> 509 ;
510 [label="gini = 0.0\nsamples = 5\nvalue = [0, 5, 0]", fillcolor="#39e581"] ;
509 -> 510 ;
511 [label="gini = 0.0\nsamples = 2\nvalue = [0, 0, 2]", fillcolor="#8139e5"] ;
509 -> 511 ;
512 [label="Age <= 73.5\ngini = 0.308\nsamples = 21\nvalue = [17, 0, 4]", fillcolor="#eb9f68"] ;
498 -> 512 ;
513 [label="Age <= 33.5\ngini = 0.198\nsamples = 18\nvalue = [16, 0, 2]", fillcolor="#e89152"] ;
512 -> 513 ;
514 [label="Age <= 32.5\ngini = 0.375\nsamples = 8\nvalue = [6, 0, 2]", fillcolor="#eeab7b"] ;
513 -> 514 ;
515 [label="Heart_Rate_Changes <= 0.5\ngini = 0.245\nsamples = 7\nvalue = [6, 0, 1]", fillcolor="#e9965a"] ;
514 -> 515 ;
516 [label="gini = 0.0\nsamples = 4\nvalue = [4, 0, 0]", fillcolor="#e58139"] ;
515 -> 516 ;
517 [label="Age <= 22.0\ngini = 0.444\nsamples = 3\nvalue = [2, 0, 1]", fillcolor="#f2c09c"] ;
515 -> 517 ;
518 [label="gini = 0.0\nsamples = 1\nvalue = [1, 0, 0]", fillcolor="#e58139"] ;
517 -> 518 ;
519 [label="Age <= 27.5\ngini = 0.5\nsamples = 2\nvalue = [1, 0, 1]", fillcolor="#ffffff"] ;
517 -> 519 ;
520 [label="gini = 0.0\nsamples = 1\nvalue = [0, 0, 1]", fillcolor="#8139e5"] ;
519 -> 520 ;
521 [label="gini = 0.0\nsamples = 1\nvalue = [1, 0, 0]", fillcolor="#e58139"] ;
519 -> 521 ;
522 [label="gini = 0.0\nsamples = 1\nvalue = [0, 0, 1]", fillcolor="#8139e5"] ;
514 -> 522 ;
523 [label="gini = 0.0\nsamples = 10\nvalue = [10, 0, 0]", fillcolor="#e58139"] ;
513 -> 523 ;
524 [label="Heart_Rate_Changes <= 0.5\ngini = 0.444\nsamples = 3\nvalue = [1, 0, 2]", fillcolor="#c09cf2"] ;
512 -> 524 ;
525 [label="gini = 0.0\nsamples = 2\nvalue = [0, 0, 2]", fillcolor="#8139e5"] ;
524 -> 525 ;
526 [label="gini = 0.0\nsamples = 1\nvalue = [1, 0, 0]", fillcolor="#e58139"] ;
524 -> 526 ;
527 [label="Gender <= 0.5\ngini = 0.628\nsamples = 33\nvalue = [12, 15, 6]", fillcolor="#e3fbed"] ;
497 -> 527 ;
528 [label="Age <= 31.5\ngini = 0.586\nsamples = 16\nvalue = [9, 3, 4]", fillcolor="#f4caac"] ;
527 -> 528 ;
529 [label="Increased_Sweating <= 0.5\ngini = 0.444\nsamples = 3\nvalue = [0, 1, 2]", fillcolor="#c09cf2"] ;
528 -> 529 ;
530 [label="gini = 0.0\nsamples = 2\nvalue = [0, 0, 2]", fillcolor="#8139e5"] ;
529 -> 530 ;
531 [label="gini = 0.0\nsamples = 1\nvalue = [0, 1, 0]", fillcolor="#39e581"] ;
529 -> 531 ;
532 [label="Difficulty_Concentrating_or_Memory_Problems <= 0.5\ngini = 0.473\nsamples = 13\nvalue = [9, 2, 2]", fillcolor="#eeaf81"] ;
528 -> 532 ;
533 [label="Age <= 53.5\ngini = 0.32\nsamples = 10\nvalue = [8, 0, 2]", fillcolor="#eca06a"] ;
532 -> 533 ;
534 [label="gini = 0.0\nsamples = 5\nvalue = [5, 0, 0]", fillcolor="#e58139"] ;
533 -> 534 ;
535 [label="Depression_or_Anxiety <= 0.5\ngini = 0.48\nsamples = 5\nvalue = [3, 0, 2]", fillcolor="#f6d5bd"] ;
533 -> 535 ;
536 [label="gini = 0.0\nsamples = 3\nvalue = [3, 0, 0]", fillcolor="#e58139"] ;
535 -> 536 ;
537 [label="gini = 0.0\nsamples = 2\nvalue = [0, 0, 2]", fillcolor="#8139e5"] ;
535 -> 537 ;
538 [label="Family_History_of_Thyroid <= 0.5\ngini = 0.444\nsamples = 3\nvalue = [1, 2, 0]", fillcolor="#9cf2c0"] ;
532 -> 538 ;
539 [label="Age <= 58.5\ngini = 0.5\nsamples = 2\nvalue = [1, 1, 0]", fillcolor="#ffffff"] ;
538 -> 539 ;
540 [label="gini = 0.0\nsamples = 1\nvalue = [0, 1, 0]", fillcolor="#39e581"] ;
539 -> 540 ;
541 [label="gini = 0.0\nsamples = 1\nvalue = [1, 0, 0]", fillcolor="#e58139"] ;
539 -> 541 ;
542 [label="gini = 0.0\nsamples = 1\nvalue = [0, 1, 0]", fillcolor="#39e581"] ;
538 -> 542 ;
543 [label="Difficulty_Concentrating_or_Memory_Problems <= 0.5\ngini = 0.457\nsamples = 17\nvalue = [3, 12, 2]", fillcolor="#80eeae"] ;
527 -> 543 ;
544 [label="Age <= 70.5\ngini = 0.198\nsamples = 9\nvalue = [0, 8, 1]", fillcolor="#52e891"] ;
543 -> 544 ;
545 [label="gini = 0.0\nsamples = 8\nvalue = [0, 8, 0]", fillcolor="#39e581"] ;
544 -> 545 ;
546 [label="gini = 0.0\nsamples = 1\nvalue = [0, 0, 1]", fillcolor="#8139e5"] ;
544 -> 546 ;
547 [label="Depression_or_Anxiety <= 0.5\ngini = 0.594\nsamples = 8\nvalue = [3, 4, 1]", fillcolor="#d7fae6"] ;
543 -> 547 ;
548 [label="Family_History_of_Thyroid <= 0.5\ngini = 0.5\nsamples = 6\nvalue = [1, 4, 1]", fillcolor="#88efb3"] ;
547 -> 548 ;
549 [label="gini = 0.0\nsamples = 3\nvalue = [0, 3, 0]", fillcolor="#39e581"] ;
548 -> 549 ;
550 [label="Increased_Sweating <= 0.5\ngini = 0.667\nsamples = 3\nvalue = [1, 1, 1]", fillcolor="#ffffff"] ;
548 -> 550 ;
551 [label="Age <= 50.0\ngini = 0.5\nsamples = 2\nvalue = [1, 1, 0]", fillcolor="#ffffff"] ;
550 -> 551 ;
552 [label="gini = 0.0\nsamples = 1\nvalue = [1, 0, 0]", fillcolor="#e58139"] ;
551 -> 552 ;
553 [label="gini = 0.0\nsamples = 1\nvalue = [0, 1, 0]", fillcolor="#39e581"] ;
551 -> 553 ;
554 [label="gini = 0.0\nsamples = 1\nvalue = [0, 0, 1]", fillcolor="#8139e5"] ;
550 -> 554 ;
555 [label="gini = 0.0\nsamples = 2\nvalue = [2, 0, 0]", fillcolor="#e58139"] ;
547 -> 555 ;
556 [label="Age <= 40.5\ngini = 0.633\nsamples = 65\nvalue = [12, 27, 26]", fillcolor="#fafefc"] ;
496 -> 556 ;
557 [label="Increased_Sweating <= 0.5\ngini = 0.278\nsamples = 12\nvalue = [2, 0, 10]", fillcolor="#9a61ea"] ;
556 -> 557 ;
558 [label="Age <= 20.5\ngini = 0.165\nsamples = 11\nvalue = [1, 0, 10]", fillcolor="#8e4de8"] ;
557 -> 558 ;
559 [label="Family_History_of_Thyroid <= 0.5\ngini = 0.5\nsamples = 2\nvalue = [1, 0, 1]", fillcolor="#ffffff"] ;
558 -> 559 ;
560 [label="gini = 0.0\nsamples = 1\nvalue = [1, 0, 0]", fillcolor="#e58139"] ;
559 -> 560 ;
561 [label="gini = 0.0\nsamples = 1\nvalue = [0, 0, 1]", fillcolor="#8139e5"] ;
559 -> 561 ;
562 [label="gini = 0.0\nsamples = 9\nvalue = [0, 0, 9]", fillcolor="#8139e5"] ;
558 -> 562 ;
563 [label="gini = 0.0\nsamples = 1\nvalue = [1, 0, 0]", fillcolor="#e58139"] ;
557 -> 563 ;
564 [label="Difficulty_Concentrating_or_Memory_Problems <= 0.5\ngini = 0.614\nsamples = 53\nvalue = [10, 27, 16]", fillcolor="#c4f7da"] ;
556 -> 564 ;
565 [label="Heart_Rate_Changes <= 0.5\ngini = 0.547\nsamples = 31\nvalue = [7, 19, 5]", fillcolor="#9cf2c0"] ;
564 -> 565 ;
566 [label="Family_History_of_Thyroid <= 0.5\ngini = 0.663\nsamples = 13\nvalue = [5, 4, 4]", fillcolor="#fcf1e9"] ;
565 -> 566 ;
567 [label="Age <= 59.5\ngini = 0.49\nsamples = 7\nvalue = [3, 4, 0]", fillcolor="#cef8e0"] ;
566 -> 567 ;
568 [label="gini = 0.0\nsamples = 3\nvalue = [0, 3, 0]", fillcolor="#39e581"] ;
567 -> 568 ;
569 [label="Depression_or_Anxiety <= 0.5\ngini = 0.375\nsamples = 4\nvalue = [3, 1, 0]", fillcolor="#eeab7b"] ;
567 -> 569 ;
570 [label="gini = 0.0\nsamples = 1\nvalue = [0, 1, 0]", fillcolor="#39e581"] ;
569 -> 570 ;
571 [label="gini = 0.0\nsamples = 3\nvalue = [3, 0, 0]", fillcolor="#e58139"] ;
569 -> 571 ;
572 [label="Age <= 51.0\ngini = 0.444\nsamples = 6\nvalue = [2, 0, 4]", fillcolor="#c09cf2"] ;
566 -> 572 ;
573 [label="gini = 0.0\nsamples = 2\nvalue = [2, 0, 0]", fillcolor="#e58139"] ;
572 -> 573 ;
574 [label="gini = 0.0\nsamples = 4\nvalue = [0, 0, 4]", fillcolor="#8139e5"] ;
572 -> 574 ;
575 [label="Age <= 77.0\ngini = 0.29\nsamples = 18\nvalue = [2, 15, 1]", fillcolor="#5eea99"] ;
565 -> 575 ;
576 [label="gini = 0.0\nsamples = 13\nvalue = [0, 13, 0]", fillcolor="#39e581"] ;
575 -> 576 ;
577 [label="Gender <= 0.5\ngini = 0.64\nsamples = 5\nvalue = [2, 2, 1]", fillcolor="#ffffff"] ;
575 -> 577 ;
578 [label="Increased_Sweating <= 0.5\ngini = 0.444\nsamples = 3\nvalue = [2, 0, 1]", fillcolor="#f2c09c"] ;
577 -> 578 ;
579 [label="gini = 0.0\nsamples = 1\nvalue = [0, 0, 1]", fillcolor="#8139e5"] ;
578 -> 579 ;
580 [label="gini = 0.0\nsamples = 2\nvalue = [2, 0, 0]", fillcolor="#e58139"] ;
578 -> 580 ;
581 [label="gini = 0.0\nsamples = 2\nvalue = [0, 2, 0]", fillcolor="#39e581"] ;
577 -> 581 ;
582 [label="Increased_Sweating <= 0.5\ngini = 0.599\nsamples = 22\nvalue = [3, 8, 11]", fillcolor="#e4d5f9"] ;
564 -> 582 ;
583 [label="Depression_or_Anxiety <= 0.5\ngini = 0.397\nsamples = 11\nvalue = [3, 0, 8]", fillcolor="#b083ef"] ;
582 -> 583 ;
584 [label="Age <= 42.5\ngini = 0.444\nsamples = 3\nvalue = [2, 0, 1]", fillcolor="#f2c09c"] ;
583 -> 584 ;
585 [label="gini = 0.0\nsamples = 1\nvalue = [1, 0, 0]", fillcolor="#e58139"] ;
584 -> 585 ;
586 [label="Age <= 55.0\ngini = 0.5\nsamples = 2\nvalue = [1, 0, 1]", fillcolor="#ffffff"] ;
584 -> 586 ;
587 [label="gini = 0.0\nsamples = 1\nvalue = [0, 0, 1]", fillcolor="#8139e5"] ;
586 -> 587 ;
588 [label="gini = 0.0\nsamples = 1\nvalue = [1, 0, 0]", fillcolor="#e58139"] ;
586 -> 588 ;
589 [label="Pregnancy <= 0.5\ngini = 0.219\nsamples = 8\nvalue = [1, 0, 7]", fillcolor="#9355e9"] ;
583 -> 589 ;
590 [label="gini = 0.0\nsamples = 7\nvalue = [0, 0, 7]", fillcolor="#8139e5"] ;
589 -> 590 ;
591 [label="gini = 0.0\nsamples = 1\nvalue = [1, 0, 0]", fillcolor="#e58139"] ;
589 -> 591 ;
592 [label="Age <= 80.5\ngini = 0.397\nsamples = 11\nvalue = [0, 8, 3]", fillcolor="#83efb0"] ;
582 -> 592 ;
593 [label="gini = 0.0\nsamples = 8\nvalue = [0, 8, 0]", fillcolor="#39e581"] ;
592 -> 593 ;
594 [label="gini = 0.0\nsamples = 3\nvalue = [0, 0, 3]", fillcolor="#8139e5"] ;
592 -> 594 ;
595 [label="Depression_or_Anxiety <= 0.5\ngini = 0.642\nsamples = 676\nvalue = [310, 197, 169]", fillcolor="#f9e1d0"] ;
3 -> 595 ;
596 [label="Heart_Rate_Changes <= 0.5\ngini = 0.571\nsamples = 417\nvalue = [244, 89, 84]", fillcolor="#f3c3a1"] ;
595 -> 596 ;
597 [label="Dry_or_Itchy_Skin <= 0.5\ngini = 0.457\nsamples = 266\nvalue = [188, 40, 38]", fillcolor="#eeac7d"] ;
596 -> 597 ;
598 [label="Age <= 15.5\ngini = 0.307\nsamples = 175\nvalue = [144, 13, 18]", fillcolor="#ea9a60"] ;
597 -> 598 ;
599 [label="gini = 0.0\nsamples = 3\nvalue = [0, 3, 0]", fillcolor="#39e581"] ;
598 -> 599 ;
600 [label="Family_History_of_Thyroid <= 0.5\ngini = 0.285\nsamples = 172\nvalue = [144, 10, 18]", fillcolor="#ea985d"] ;
598 -> 600 ;
601 [label="Hair_Loss <= 0.5\ngini = 0.196\nsamples = 103\nvalue = [92.0, 4.0, 7.0]", fillcolor="#e88f50"] ;
600 -> 601 ;
602 [label="Age <= 75.5\ngini = 0.061\nsamples = 64\nvalue = [62, 0, 2]", fillcolor="#e6853f"] ;
601 -> 602 ;
603 [label="Increased_Sweating <= 0.5\ngini = 0.035\nsamples = 56\nvalue = [55, 0, 1]", fillcolor="#e5833d"] ;
602 -> 603 ;
604 [label="gini = 0.0\nsamples = 46\nvalue = [46, 0, 0]", fillcolor="#e58139"] ;
603 -> 604 ;
605 [label="Difficulty_Concentrating_or_Memory_Problems <= 0.5\ngini = 0.18\nsamples = 10\nvalue = [9, 0, 1]", fillcolor="#e88f4f"] ;
603 -> 605 ;
606 [label="gini = 0.0\nsamples = 6\nvalue = [6, 0, 0]", fillcolor="#e58139"] ;
605 -> 606 ;
607 [label="Constipation_or_More_Bowel_Movements <= 0.5\ngini = 0.375\nsamples = 4\nvalue = [3, 0, 1]", fillcolor="#eeab7b"] ;
605 -> 607 ;
608 [label="Age <= 29.5\ngini = 0.5\nsamples = 2\nvalue = [1, 0, 1]", fillcolor="#ffffff"] ;
607 -> 608 ;
609 [label="gini = 0.0\nsamples = 1\nvalue = [1, 0, 0]", fillcolor="#e58139"] ;
608 -> 609 ;
610 [label="gini = 0.0\nsamples = 1\nvalue = [0, 0, 1]", fillcolor="#8139e5"] ;
608 -> 610 ;
611 [label="gini = 0.0\nsamples = 2\nvalue = [2, 0, 0]", fillcolor="#e58139"] ;
607 -> 611 ;
612 [label="Gender <= 0.5\ngini = 0.219\nsamples = 8\nvalue = [7, 0, 1]", fillcolor="#e99355"] ;
602 -> 612 ;
613 [label="gini = 0.0\nsamples = 6\nvalue = [6, 0, 0]", fillcolor="#e58139"] ;
612 -> 613 ;
614 [label="Age <= 81.5\ngini = 0.5\nsamples = 2\nvalue = [1, 0, 1]", fillcolor="#ffffff"] ;
612 -> 614 ;
615 [label="gini = 0.0\nsamples = 1\nvalue = [0, 0, 1]", fillcolor="#8139e5"] ;
614 -> 615 ;
616 [label="gini = 0.0\nsamples = 1\nvalue = [1, 0, 0]", fillcolor="#e58139"] ;
614 -> 616 ;
617 [label="Constipation_or_More_Bowel_Movements <= 0.5\ngini = 0.381\nsamples = 39\nvalue = [30, 4, 5]", fillcolor="#eca26d"] ;
601 -> 617 ;
618 [label="Age <= 40.5\ngini = 0.198\nsamples = 27\nvalue = [24, 3, 0]", fillcolor="#e89152"] ;
617 -> 618 ;
619 [label="Difficulty_Concentrating_or_Memory_Problems <= 0.5\ngini = 0.469\nsamples = 8\nvalue = [5, 3, 0]", fillcolor="#f5cdb0"] ;
618 -> 619 ;
620 [label="Age <= 36.0\ngini = 0.278\nsamples = 6\nvalue = [5, 1, 0]", fillcolor="#ea9a61"] ;
619 -> 620 ;
621 [label="Weight_Change <= 0.5\ngini = 0.5\nsamples = 2\nvalue = [1, 1, 0]", fillcolor="#ffffff"] ;
620 -> 621 ;
622 [label="gini = 0.0\nsamples = 1\nvalue = [0, 1, 0]", fillcolor="#39e581"] ;
621 -> 622 ;
623 [label="gini = 0.0\nsamples = 1\nvalue = [1, 0, 0]", fillcolor="#e58139"] ;
621 -> 623 ;
624 [label="gini = 0.0\nsamples = 4\nvalue = [4, 0, 0]", fillcolor="#e58139"] ;
620 -> 624 ;
625 [label="gini = 0.0\nsamples = 2\nvalue = [0, 2, 0]", fillcolor="#39e581"] ;
619 -> 625 ;
626 [label="gini = 0.0\nsamples = 19\nvalue = [19, 0, 0]", fillcolor="#e58139"] ;
618 -> 626 ;
627 [label="Difficulty_Concentrating_or_Memory_Problems <= 0.5\ngini = 0.569\nsamples = 12\nvalue = [6, 1, 5]", fillcolor="#fbede3"] ;
617 -> 627 ;
628 [label="Gender <= 0.5\ngini = 0.54\nsamples = 10\nvalue = [6, 1, 3]", fillcolor="#f4c9aa"] ;
627 -> 628 ;
629 [label="Age <= 61.0\ngini = 0.32\nsamples = 5\nvalue = [4, 1, 0]", fillcolor="#eca06a"] ;
628 -> 629 ;
630 [label="gini = 0.0\nsamples = 1\nvalue = [0, 1, 0]", fillcolor="#39e581"] ;
629 -> 630 ;
631 [label="gini = 0.0\nsamples = 4\nvalue = [4, 0, 0]", fillcolor="#e58139"] ;
629 -> 631 ;
632 [label="Age <= 51.0\ngini = 0.48\nsamples = 5\nvalue = [2, 0, 3]", fillcolor="#d5bdf6"] ;
628 -> 632 ;
633 [label="gini = 0.0\nsamples = 2\nvalue = [2, 0, 0]", fillcolor="#e58139"] ;
632 -> 633 ;
634 [label="gini = 0.0\nsamples = 3\nvalue = [0, 0, 3]", fillcolor="#8139e5"] ;
632 -> 634 ;
635 [label="gini = 0.0\nsamples = 2\nvalue = [0, 0, 2]", fillcolor="#8139e5"] ;
627 -> 635 ;
636 [label="Age <= 61.5\ngini = 0.399\nsamples = 69\nvalue = [52.0, 6.0, 11.0]", fillcolor="#eda673"] ;
600 -> 636 ;
637 [label="Age <= 60.5\ngini = 0.506\nsamples = 46\nvalue = [30, 5, 11]", fillcolor="#f1bb94"] ;
636 -> 637 ;
638 [label="Difficulty_Concentrating_or_Memory_Problems <= 0.5\ngini = 0.465\nsamples = 43\nvalue = [30, 5, 8]", fillcolor="#efb083"] ;
637 -> 638 ;
639 [label="Hair_Loss <= 0.5\ngini = 0.34\nsamples = 30\nvalue = [24, 3, 3]", fillcolor="#eb9d65"] ;
638 -> 639 ;
640 [label="Constipation_or_More_Bowel_Movements <= 0.5\ngini = 0.309\nsamples = 28\nvalue = [23, 3, 2]", fillcolor="#ea9a61"] ;
639 -> 640 ;
641 [label="Age <= 43.5\ngini = 0.236\nsamples = 22\nvalue = [19, 3, 0]", fillcolor="#e99558"] ;
640 -> 641 ;
642 [label="Increased_Sweating <= 0.5\ngini = 0.397\nsamples = 11\nvalue = [8, 3, 0]", fillcolor="#efb083"] ;
641 -> 642 ;
643 [label="Gender <= 0.5\ngini = 0.5\nsamples = 6\nvalue = [3, 3, 0]", fillcolor="#ffffff"] ;
642 -> 643 ;
644 [label="Weight_Change <= 0.5\ngini = 0.375\nsamples = 4\nvalue = [3, 1, 0]", fillcolor="#eeab7b"] ;
643 -> 644 ;
645 [label="gini = 0.0\nsamples = 3\nvalue = [3, 0, 0]", fillcolor="#e58139"] ;
644 -> 645 ;
646 [label="gini = 0.0\nsamples = 1\nvalue = [0, 1, 0]", fillcolor="#39e581"] ;
644 -> 646 ;
647 [label="gini = 0.0\nsamples = 2\nvalue = [0, 2, 0]", fillcolor="#39e581"] ;
643 -> 647 ;
648 [label="gini = 0.0\nsamples = 5\nvalue = [5, 0, 0]", fillcolor="#e58139"] ;
642 -> 648 ;
649 [label="gini = 0.0\nsamples = 11\nvalue = [11, 0, 0]", fillcolor="#e58139"] ;
641 -> 649 ;
650 [label="Age <= 41.5\ngini = 0.444\nsamples = 6\nvalue = [4, 0, 2]", fillcolor="#f2c09c"] ;
640 -> 650 ;
651 [label="gini = 0.0\nsamples = 4\nvalue = [4, 0, 0]", fillcolor="#e58139"] ;
650 -> 651 ;
652 [label="gini = 0.0\nsamples = 2\nvalue = [0, 0, 2]", fillcolor="#8139e5"] ;
650 -> 652 ;
653 [label="Gender <= 0.5\ngini = 0.5\nsamples = 2\nvalue = [1, 0, 1]", fillcolor="#ffffff"] ;
639 -> 653 ;
654 [label="gini = 0.0\nsamples = 1\nvalue = [0, 0, 1]", fillcolor="#8139e5"] ;
653 -> 654 ;
655 [label="gini = 0.0\nsamples = 1\nvalue = [1, 0, 0]", fillcolor="#e58139"] ;
653 -> 655 ;
656 [label="Gender <= 0.5\ngini = 0.615\nsamples = 13\nvalue = [6, 2, 5]", fillcolor="#fcefe6"] ;
638 -> 656 ;
657 [label="Age <= 44.5\ngini = 0.469\nsamples = 8\nvalue = [3, 0, 5]", fillcolor="#cdb0f5"] ;
656 -> 657 ;
658 [label="Age <= 30.5\ngini = 0.278\nsamples = 6\nvalue = [1, 0, 5]", fillcolor="#9a61ea"] ;
657 -> 658 ;
659 [label="gini = 0.0\nsamples = 1\nvalue = [1, 0, 0]", fillcolor="#e58139"] ;
658 -> 659 ;
660 [label="gini = 0.0\nsamples = 5\nvalue = [0, 0, 5]", fillcolor="#8139e5"] ;
658 -> 660 ;
661 [label="gini = 0.0\nsamples = 2\nvalue = [2, 0, 0]", fillcolor="#e58139"] ;
657 -> 661 ;
662 [label="Age <= 34.0\ngini = 0.48\nsamples = 5\nvalue = [3, 2, 0]", fillcolor="#f6d5bd"] ;
656 -> 662 ;
663 [label="gini = 0.0\nsamples = 2\nvalue = [2, 0, 0]", fillcolor="#e58139"] ;
662 -> 663 ;
664 [label="Age <= 42.0\ngini = 0.444\nsamples = 3\nvalue = [1, 2, 0]", fillcolor="#9cf2c0"] ;
662 -> 664 ;
665 [label="gini = 0.0\nsamples = 2\nvalue = [0, 2, 0]", fillcolor="#39e581"] ;
664 -> 665 ;
666 [label="gini = 0.0\nsamples = 1\nvalue = [1, 0, 0]", fillcolor="#e58139"] ;
664 -> 666 ;
667 [label="gini = 0.0\nsamples = 3\nvalue = [0, 0, 3]", fillcolor="#8139e5"] ;
637 -> 667 ;
668 [label="Constipation_or_More_Bowel_Movements <= 0.5\ngini = 0.083\nsamples = 23\nvalue = [22, 1, 0]", fillcolor="#e68742"] ;
636 -> 668 ;
669 [label="gini = 0.0\nsamples = 15\nvalue = [15, 0, 0]", fillcolor="#e58139"] ;
668 -> 669 ;
670 [label="Age <= 81.0\ngini = 0.219\nsamples = 8\nvalue = [7, 1, 0]", fillcolor="#e99355"] ;
668 -> 670 ;
671 [label="Age <= 74.0\ngini = 0.375\nsamples = 4\nvalue = [3, 1, 0]", fillcolor="#eeab7b"] ;
670 -> 671 ;
672 [label="gini = 0.0\nsamples = 3\nvalue = [3, 0, 0]", fillcolor="#e58139"] ;
671 -> 672 ;
673 [label="gini = 0.0\nsamples = 1\nvalue = [0, 1, 0]", fillcolor="#39e581"] ;
671 -> 673 ;
674 [label="gini = 0.0\nsamples = 4\nvalue = [4, 0, 0]", fillcolor="#e58139"] ;
670 -> 674 ;
675 [label="Age <= 66.0\ngini = 0.63\nsamples = 91\nvalue = [44, 27, 20]", fillcolor="#f8deca"] ;
597 -> 675 ;
676 [label="Hair_Loss <= 0.5\ngini = 0.606\nsamples = 66\nvalue = [35, 13, 18]", fillcolor="#f6d2b9"] ;
675 -> 676 ;
677 [label="Age <= 56.0\ngini = 0.531\nsamples = 40\nvalue = [25, 10, 5]", fillcolor="#f2c09c"] ;
676 -> 677 ;
678 [label="Age <= 29.5\ngini = 0.403\nsamples = 34\nvalue = [25, 8, 1]", fillcolor="#eead7e"] ;
677 -> 678 ;
679 [label="Constipation_or_More_Bowel_Movements <= 0.5\ngini = 0.469\nsamples = 8\nvalue = [3, 5, 0]", fillcolor="#b0f5cd"] ;
678 -> 679 ;
680 [label="Age <= 26.5\ngini = 0.375\nsamples = 4\nvalue = [3, 1, 0]", fillcolor="#eeab7b"] ;
679 -> 680 ;
681 [label="gini = 0.0\nsamples = 3\nvalue = [3, 0, 0]", fillcolor="#e58139"] ;
680 -> 681 ;
682 [label="gini = 0.0\nsamples = 1\nvalue = [0, 1, 0]", fillcolor="#39e581"] ;
680 -> 682 ;
683 [label="gini = 0.0\nsamples = 4\nvalue = [0, 4, 0]", fillcolor="#39e581"] ;
679 -> 683 ;
684 [label="Weight_Change <= 0.5\ngini = 0.269\nsamples = 26\nvalue = [22, 3, 1]", fillcolor="#ea975b"] ;
678 -> 684 ;
685 [label="gini = 0.0\nsamples = 18\nvalue = [18, 0, 0]", fillcolor="#e58139"] ;
684 -> 685 ;
686 [label="Age <= 40.5\ngini = 0.594\nsamples = 8\nvalue = [4, 3, 1]", fillcolor="#fae6d7"] ;
684 -> 686 ;
687 [label="gini = 0.0\nsamples = 3\nvalue = [0, 3, 0]", fillcolor="#39e581"] ;
686 -> 687 ;
688 [label="Family_History_of_Thyroid <= 0.5\ngini = 0.32\nsamples = 5\nvalue = [4, 0, 1]", fillcolor="#eca06a"] ;
686 -> 688 ;
689 [label="gini = 0.0\nsamples = 3\nvalue = [3, 0, 0]", fillcolor="#e58139"] ;
688 -> 689 ;
690 [label="Pregnancy <= 0.5\ngini = 0.5\nsamples = 2\nvalue = [1, 0, 1]", fillcolor="#ffffff"] ;
688 -> 690 ;
691 [label="gini = 0.0\nsamples = 1\nvalue = [0, 0, 1]", fillcolor="#8139e5"] ;
690 -> 691 ;
692 [label="gini = 0.0\nsamples = 1\nvalue = [1, 0, 0]", fillcolor="#e58139"] ;
690 -> 692 ;
693 [label="Age <= 57.5\ngini = 0.444\nsamples = 6\nvalue = [0, 2, 4]", fillcolor="#c09cf2"] ;
677 -> 693 ;
694 [label="gini = 0.0\nsamples = 3\nvalue = [0, 0, 3]", fillcolor="#8139e5"] ;
693 -> 694 ;
695 [label="Age <= 63.5\ngini = 0.444\nsamples = 3\nvalue = [0, 2, 1]", fillcolor="#9cf2c0"] ;
693 -> 695 ;
696 [label="gini = 0.0\nsamples = 2\nvalue = [0, 2, 0]", fillcolor="#39e581"] ;
695 -> 696 ;
697 [label="gini = 0.0\nsamples = 1\nvalue = [0, 0, 1]", fillcolor="#8139e5"] ;
695 -> 697 ;
698 [label="Difficulty_Concentrating_or_Memory_Problems <= 0.5\ngini = 0.589\nsamples = 26\nvalue = [10, 3, 13]", fillcolor="#e7dafa"] ;
676 -> 698 ;
699 [label="Age <= 41.5\ngini = 0.604\nsamples = 13\nvalue = [7, 3, 3]", fillcolor="#f5cdb0"] ;
698 -> 699 ;
700 [label="Family_History_of_Thyroid <= 0.5\ngini = 0.611\nsamples = 6\nvalue = [2, 1, 3]", fillcolor="#e0cef8"] ;
699 -> 700 ;
701 [label="gini = 0.0\nsamples = 1\nvalue = [0, 1, 0]", fillcolor="#39e581"] ;
700 -> 701 ;
702 [label="Gender <= 0.5\ngini = 0.48\nsamples = 5\nvalue = [2, 0, 3]", fillcolor="#d5bdf6"] ;
700 -> 702 ;
703 [label="gini = 0.0\nsamples = 2\nvalue = [0, 0, 2]", fillcolor="#8139e5"] ;
702 -> 703 ;
704 [label="Age <= 28.0\ngini = 0.444\nsamples = 3\nvalue = [2, 0, 1]", fillcolor="#f2c09c"] ;
702 -> 704 ;
705 [label="gini = 0.0\nsamples = 2\nvalue = [2, 0, 0]", fillcolor="#e58139"] ;
704 -> 705 ;
706 [label="gini = 0.0\nsamples = 1\nvalue = [0, 0, 1]", fillcolor="#8139e5"] ;
704 -> 706 ;
707 [label="Family_History_of_Thyroid <= 0.5\ngini = 0.408\nsamples = 7\nvalue = [5, 2, 0]", fillcolor="#efb388"] ;
699 -> 707 ;
708 [label="gini = 0.0\nsamples = 4\nvalue = [4, 0, 0]", fillcolor="#e58139"] ;
707 -> 708 ;
709 [label="Constipation_or_More_Bowel_Movements <= 0.5\ngini = 0.444\nsamples = 3\nvalue = [1, 2, 0]", fillcolor="#9cf2c0"] ;
707 -> 709 ;
710 [label="gini = 0.0\nsamples = 1\nvalue = [1, 0, 0]", fillcolor="#e58139"] ;
709 -> 710 ;
711 [label="gini = 0.0\nsamples = 2\nvalue = [0, 2, 0]", fillcolor="#39e581"] ;
709 -> 711 ;
712 [label="Age <= 27.0\ngini = 0.355\nsamples = 13\nvalue = [3, 0, 10]", fillcolor="#a774ed"] ;
698 -> 712 ;
713 [label="gini = 0.0\nsamples = 2\nvalue = [2, 0, 0]", fillcolor="#e58139"] ;
712 -> 713 ;
714 [label="Age <= 51.0\ngini = 0.165\nsamples = 11\nvalue = [1, 0, 10]", fillcolor="#8e4de8"] ;
712 -> 714 ;
715 [label="gini = 0.0\nsamples = 7\nvalue = [0, 0, 7]", fillcolor="#8139e5"] ;
714 -> 715 ;
716 [label="Increased_Sweating <= 0.5\ngini = 0.375\nsamples = 4\nvalue = [1, 0, 3]", fillcolor="#ab7bee"] ;
714 -> 716 ;
717 [label="gini = 0.0\nsamples = 1\nvalue = [1, 0, 0]", fillcolor="#e58139"] ;
716 -> 717 ;
718 [label="gini = 0.0\nsamples = 3\nvalue = [0, 0, 3]", fillcolor="#8139e5"] ;
716 -> 718 ;
719 [label="Hair_Loss <= 0.5\ngini = 0.55\nsamples = 25\nvalue = [9.0, 14.0, 2.0]", fillcolor="#c1f7d8"] ;
675 -> 719 ;
720 [label="gini = 0.0\nsamples = 10\nvalue = [0, 10, 0]", fillcolor="#39e581"] ;
719 -> 720 ;
721 [label="Increased_Sweating <= 0.5\ngini = 0.551\nsamples = 15\nvalue = [9, 4, 2]", fillcolor="#f3c6a5"] ;
719 -> 721 ;
722 [label="Age <= 86.5\ngini = 0.444\nsamples = 6\nvalue = [2, 4, 0]", fillcolor="#9cf2c0"] ;
721 -> 722 ;
723 [label="gini = 0.0\nsamples = 4\nvalue = [0, 4, 0]", fillcolor="#39e581"] ;
722 -> 723 ;
724 [label="gini = 0.0\nsamples = 2\nvalue = [2, 0, 0]", fillcolor="#e58139"] ;
722 -> 724 ;
725 [label="Difficulty_Concentrating_or_Memory_Problems <= 0.5\ngini = 0.346\nsamples = 9\nvalue = [7, 0, 2]", fillcolor="#eca572"] ;
721 -> 725 ;
726 [label="gini = 0.0\nsamples = 7\nvalue = [7, 0, 0]", fillcolor="#e58139"] ;
725 -> 726 ;
727 [label="gini = 0.0\nsamples = 2\nvalue = [0, 0, 2]", fillcolor="#8139e5"] ;
725 -> 727 ;
728 [label="Constipation_or_More_Bowel_Movements <= 0.5\ngini = 0.664\nsamples = 151\nvalue = [56, 49, 46]", fillcolor="#fdf6f1"] ;
596 -> 728 ;
729 [label="Weight_Change <= 0.5\ngini = 0.632\nsamples = 105\nvalue = [51, 26, 28]", fillcolor="#f7d9c4"] ;
728 -> 729 ;
730 [label="Age <= 83.5\ngini = 0.516\nsamples = 60\nvalue = [39, 10, 11]", fillcolor="#f0b78e"] ;
729 -> 730 ;
731 [label="Age <= 65.5\ngini = 0.467\nsamples = 56\nvalue = [39, 7, 10]", fillcolor="#efb082"] ;
730 -> 731 ;
732 [label="Pregnancy <= 0.5\ngini = 0.384\nsamples = 43\nvalue = [33, 5, 5]", fillcolor="#eca26d"] ;
731 -> 732 ;
733 [label="Age <= 21.5\ngini = 0.304\nsamples = 34\nvalue = [28, 4, 2]", fillcolor="#ea9a61"] ;
732 -> 733 ;
734 [label="gini = 0.0\nsamples = 1\nvalue = [0, 0, 1]", fillcolor="#8139e5"] ;
733 -> 734 ;
735 [label="Age <= 55.5\ngini = 0.264\nsamples = 33\nvalue = [28, 4, 1]", fillcolor="#e9975b"] ;
733 -> 735 ;
736 [label="Difficulty_Concentrating_or_Memory_Problems <= 0.5\ngini = 0.156\nsamples = 24\nvalue = [22, 1, 1]", fillcolor="#e78c4a"] ;
735 -> 736 ;
737 [label="Age <= 29.5\ngini = 0.095\nsamples = 20\nvalue = [19, 0, 1]", fillcolor="#e68843"] ;
736 -> 737 ;
738 [label="Age <= 25.5\ngini = 0.375\nsamples = 4\nvalue = [3, 0, 1]", fillcolor="#eeab7b"] ;
737 -> 738 ;
739 [label="gini = 0.0\nsamples = 3\nvalue = [3, 0, 0]", fillcolor="#e58139"] ;
738 -> 739 ;
740 [label="gini = 0.0\nsamples = 1\nvalue = [0, 0, 1]", fillcolor="#8139e5"] ;
738 -> 740 ;
741 [label="gini = 0.0\nsamples = 16\nvalue = [16, 0, 0]", fillcolor="#e58139"] ;
737 -> 741 ;
742 [label="Age <= 39.0\ngini = 0.375\nsamples = 4\nvalue = [3, 1, 0]", fillcolor="#eeab7b"] ;
736 -> 742 ;
743 [label="gini = 0.0\nsamples = 3\nvalue = [3, 0, 0]", fillcolor="#e58139"] ;
742 -> 743 ;
744 [label="gini = 0.0\nsamples = 1\nvalue = [0, 1, 0]", fillcolor="#39e581"] ;
742 -> 744 ;
745 [label="Age <= 60.5\ngini = 0.444\nsamples = 9\nvalue = [6, 3, 0]", fillcolor="#f2c09c"] ;
735 -> 745 ;
746 [label="gini = 0.0\nsamples = 3\nvalue = [0, 3, 0]", fillcolor="#39e581"] ;
745 -> 746 ;
747 [label="gini = 0.0\nsamples = 6\nvalue = [6, 0, 0]", fillcolor="#e58139"] ;
745 -> 747 ;
748 [label="Age <= 58.5\ngini = 0.568\nsamples = 9\nvalue = [5, 1, 3]", fillcolor="#f6d5bd"] ;
732 -> 748 ;
749 [label="Age <= 29.5\ngini = 0.611\nsamples = 6\nvalue = [2, 1, 3]", fillcolor="#e0cef8"] ;
748 -> 749 ;
750 [label="Increased_Sweating <= 0.5\ngini = 0.5\nsamples = 2\nvalue = [1, 1, 0]", fillcolor="#ffffff"] ;
749 -> 750 ;
751 [label="gini = 0.0\nsamples = 1\nvalue = [0, 1, 0]", fillcolor="#39e581"] ;
750 -> 751 ;
752 [label="gini = 0.0\nsamples = 1\nvalue = [1, 0, 0]", fillcolor="#e58139"] ;
750 -> 752 ;
753 [label="Age <= 42.5\ngini = 0.375\nsamples = 4\nvalue = [1, 0, 3]", fillcolor="#ab7bee"] ;
749 -> 753 ;
754 [label="gini = 0.0\nsamples = 2\nvalue = [0, 0, 2]", fillcolor="#8139e5"] ;
753 -> 754 ;
755 [label="Hair_Loss <= 0.5\ngini = 0.5\nsamples = 2\nvalue = [1, 0, 1]", fillcolor="#ffffff"] ;
753 -> 755 ;
756 [label="gini = 0.0\nsamples = 1\nvalue = [0, 0, 1]", fillcolor="#8139e5"] ;
755 -> 756 ;
757 [label="gini = 0.0\nsamples = 1\nvalue = [1, 0, 0]", fillcolor="#e58139"] ;
755 -> 757 ;
758 [label="gini = 0.0\nsamples = 3\nvalue = [3, 0, 0]", fillcolor="#e58139"] ;
748 -> 758 ;
759 [label="Difficulty_Concentrating_or_Memory_Problems <= 0.5\ngini = 0.615\nsamples = 13\nvalue = [6, 2, 5]", fillcolor="#fcefe6"] ;
731 -> 759 ;
760 [label="Family_History_of_Thyroid <= 0.5\ngini = 0.593\nsamples = 9\nvalue = [2, 2, 5]", fillcolor="#c9aaf4"] ;
759 -> 760 ;
761 [label="Gender <= 0.5\ngini = 0.625\nsamples = 4\nvalue = [1, 2, 1]", fillcolor="#bdf6d5"] ;
760 -> 761 ;
762 [label="Hair_Loss <= 0.5\ngini = 0.444\nsamples = 3\nvalue = [0, 2, 1]", fillcolor="#9cf2c0"] ;
761 -> 762 ;
763 [label="gini = 0.0\nsamples = 1\nvalue = [0, 1, 0]", fillcolor="#39e581"] ;
762 -> 763 ;
764 [label="gini = 0.5\nsamples = 2\nvalue = [0, 1, 1]", fillcolor="#ffffff"] ;
762 -> 764 ;
765 [label="gini = 0.0\nsamples = 1\nvalue = [1, 0, 0]", fillcolor="#e58139"] ;
761 -> 765 ;
766 [label="Hair_Loss <= 0.5\ngini = 0.32\nsamples = 5\nvalue = [1, 0, 4]", fillcolor="#a06aec"] ;
760 -> 766 ;
767 [label="gini = 0.0\nsamples = 3\nvalue = [0, 0, 3]", fillcolor="#8139e5"] ;
766 -> 767 ;
768 [label="Gender <= 0.5\ngini = 0.5\nsamples = 2\nvalue = [1, 0, 1]", fillcolor="#ffffff"] ;
766 -> 768 ;
769 [label="gini = 0.0\nsamples = 1\nvalue = [0, 0, 1]", fillcolor="#8139e5"] ;
768 -> 769 ;
770 [label="gini = 0.0\nsamples = 1\nvalue = [1, 0, 0]", fillcolor="#e58139"] ;
768 -> 770 ;
771 [label="gini = 0.0\nsamples = 4\nvalue = [4, 0, 0]", fillcolor="#e58139"] ;
759 -> 771 ;
772 [label="Dry_or_Itchy_Skin <= 0.5\ngini = 0.375\nsamples = 4\nvalue = [0, 3, 1]", fillcolor="#7beeab"] ;
730 -> 772 ;
773 [label="gini = 0.0\nsamples = 3\nvalue = [0, 3, 0]", fillcolor="#39e581"] ;
772 -> 773 ;
774 [label="gini = 0.0\nsamples = 1\nvalue = [0, 0, 1]", fillcolor="#8139e5"] ;
772 -> 774 ;
775 [label="Increased_Sweating <= 0.5\ngini = 0.66\nsamples = 45\nvalue = [12, 16, 17]", fillcolor="#fbf8fe"] ;
729 -> 775 ;
776 [label="Pregnancy <= 0.5\ngini = 0.605\nsamples = 23\nvalue = [12, 7, 4]", fillcolor="#f7d8c1"] ;
775 -> 776 ;
777 [label="Difficulty_Concentrating_or_Memory_Problems <= 0.5\ngini = 0.499\nsamples = 19\nvalue = [12, 6, 1]", fillcolor="#f3c5a4"] ;
776 -> 777 ;
778 [label="Dry_or_Itchy_Skin <= 0.5\ngini = 0.278\nsamples = 12\nvalue = [10, 2, 0]", fillcolor="#ea9a61"] ;
777 -> 778 ;
779 [label="Family_History_of_Thyroid <= 0.5\ngini = 0.18\nsamples = 10\nvalue = [9, 1, 0]", fillcolor="#e88f4f"] ;
778 -> 779 ;
780 [label="gini = 0.0\nsamples = 6\nvalue = [6, 0, 0]", fillcolor="#e58139"] ;
779 -> 780 ;
781 [label="Hair_Loss <= 0.5\ngini = 0.375\nsamples = 4\nvalue = [3, 1, 0]", fillcolor="#eeab7b"] ;
779 -> 781 ;
782 [label="gini = 0.0\nsamples = 3\nvalue = [3, 0, 0]", fillcolor="#e58139"] ;
781 -> 782 ;
783 [label="gini = 0.0\nsamples = 1\nvalue = [0, 1, 0]", fillcolor="#39e581"] ;
781 -> 783 ;
784 [label="Hair_Loss <= 0.5\ngini = 0.5\nsamples = 2\nvalue = [1, 1, 0]", fillcolor="#ffffff"] ;
778 -> 784 ;
785 [label="gini = 0.0\nsamples = 1\nvalue = [0, 1, 0]", fillcolor="#39e581"] ;
784 -> 785 ;
786 [label="gini = 0.0\nsamples = 1\nvalue = [1, 0, 0]", fillcolor="#e58139"] ;
784 -> 786 ;
787 [label="Dry_or_Itchy_Skin <= 0.5\ngini = 0.571\nsamples = 7\nvalue = [2, 4, 1]", fillcolor="#b0f5cd"] ;
777 -> 787 ;
788 [label="Hair_Loss <= 0.5\ngini = 0.32\nsamples = 5\nvalue = [0, 4, 1]", fillcolor="#6aeca0"] ;
787 -> 788 ;
789 [label="gini = 0.0\nsamples = 4\nvalue = [0, 4, 0]", fillcolor="#39e581"] ;
788 -> 789 ;
790 [label="gini = 0.0\nsamples = 1\nvalue = [0, 0, 1]", fillcolor="#8139e5"] ;
788 -> 790 ;
791 [label="gini = 0.0\nsamples = 2\nvalue = [2, 0, 0]", fillcolor="#e58139"] ;
787 -> 791 ;
792 [label="Age <= 46.0\ngini = 0.375\nsamples = 4\nvalue = [0, 1, 3]", fillcolor="#ab7bee"] ;
776 -> 792 ;
793 [label="gini = 0.0\nsamples = 3\nvalue = [0, 0, 3]", fillcolor="#8139e5"] ;
792 -> 793 ;
794 [label="gini = 0.0\nsamples = 1\nvalue = [0, 1, 0]", fillcolor="#39e581"] ;
792 -> 794 ;
795 [label="Age <= 71.0\ngini = 0.483\nsamples = 22\nvalue = [0, 9, 13]", fillcolor="#d8c2f7"] ;
775 -> 795 ;
796 [label="Age <= 49.0\ngini = 0.492\nsamples = 16\nvalue = [0, 9, 7]", fillcolor="#d3f9e3"] ;
795 -> 796 ;
797 [label="Age <= 19.5\ngini = 0.245\nsamples = 7\nvalue = [0, 1, 6]", fillcolor="#965ae9"] ;
796 -> 797 ;
798 [label="gini = 0.375\nsamples = 4\nvalue = [0, 1, 3]", fillcolor="#ab7bee"] ;
797 -> 798 ;
799 [label="gini = 0.0\nsamples = 3\nvalue = [0, 0, 3]", fillcolor="#8139e5"] ;
797 -> 799 ;
800 [label="Age <= 65.5\ngini = 0.198\nsamples = 9\nvalue = [0, 8, 1]", fillcolor="#52e891"] ;
796 -> 800 ;
801 [label="gini = 0.0\nsamples = 7\nvalue = [0, 7, 0]", fillcolor="#39e581"] ;
800 -> 801 ;
802 [label="gini = 0.5\nsamples = 2\nvalue = [0, 1, 1]", fillcolor="#ffffff"] ;
800 -> 802 ;
803 [label="gini = 0.0\nsamples = 6\nvalue = [0, 0, 6]", fillcolor="#8139e5"] ;
795 -> 803 ;
804 [label="Dry_or_Itchy_Skin <= 0.5\ngini = 0.585\nsamples = 46\nvalue = [5, 23, 18]", fillcolor="#dcfae8"] ;
728 -> 804 ;
805 [label="Age <= 20.5\ngini = 0.54\nsamples = 21\nvalue = [5, 3, 13]", fillcolor="#c09cf2"] ;
804 -> 805 ;
806 [label="gini = 0.0\nsamples = 3\nvalue = [3, 0, 0]", fillcolor="#e58139"] ;
805 -> 806 ;
807 [label="Family_History_of_Thyroid <= 0.5\ngini = 0.438\nsamples = 18\nvalue = [2, 3, 13]", fillcolor="#ab7bee"] ;
805 -> 807 ;
808 [label="Age <= 71.5\ngini = 0.612\nsamples = 7\nvalue = [1, 3, 3]", fillcolor="#ffffff"] ;
807 -> 808 ;
809 [label="Age <= 45.5\ngini = 0.375\nsamples = 4\nvalue = [1, 3, 0]", fillcolor="#7beeab"] ;
808 -> 809 ;
810 [label="gini = 0.0\nsamples = 1\nvalue = [1, 0, 0]", fillcolor="#e58139"] ;
809 -> 810 ;
811 [label="gini = 0.0\nsamples = 3\nvalue = [0, 3, 0]", fillcolor="#39e581"] ;
809 -> 811 ;
812 [label="gini = 0.0\nsamples = 3\nvalue = [0, 0, 3]", fillcolor="#8139e5"] ;
808 -> 812 ;
813 [label="Increased_Sweating <= 0.5\ngini = 0.165\nsamples = 11\nvalue = [1, 0, 10]", fillcolor="#8e4de8"] ;
807 -> 813 ;
814 [label="gini = 0.0\nsamples = 7\nvalue = [0, 0, 7]", fillcolor="#8139e5"] ;
813 -> 814 ;
815 [label="Age <= 58.5\ngini = 0.375\nsamples = 4\nvalue = [1, 0, 3]", fillcolor="#ab7bee"] ;
813 -> 815 ;
816 [label="gini = 0.0\nsamples = 3\nvalue = [0, 0, 3]", fillcolor="#8139e5"] ;
815 -> 816 ;
817 [label="gini = 0.0\nsamples = 1\nvalue = [1, 0, 0]", fillcolor="#e58139"] ;
815 -> 817 ;
818 [label="Age <= 22.5\ngini = 0.32\nsamples = 25\nvalue = [0, 20, 5]", fillcolor="#6aeca0"] ;
804 -> 818 ;
819 [label="gini = 0.0\nsamples = 1\nvalue = [0, 0, 1]", fillcolor="#8139e5"] ;
818 -> 819 ;
820 [label="Age <= 28.0\ngini = 0.278\nsamples = 24\nvalue = [0, 20, 4]", fillcolor="#61ea9a"] ;
818 -> 820 ;
821 [label="gini = 0.0\nsamples = 9\nvalue = [0, 9, 0]", fillcolor="#39e581"] ;
820 -> 821 ;
822 [label="Age <= 40.0\ngini = 0.391\nsamples = 15\nvalue = [0, 11, 4]", fillcolor="#81eeaf"] ;
820 -> 822 ;
823 [label="Weight_Change <= 0.5\ngini = 0.48\nsamples = 5\nvalue = [0, 2, 3]", fillcolor="#d5bdf6"] ;
822 -> 823 ;
824 [label="gini = 0.0\nsamples = 2\nvalue = [0, 0, 2]", fillcolor="#8139e5"] ;
823 -> 824 ;
825 [label="Age <= 31.0\ngini = 0.444\nsamples = 3\nvalue = [0, 2, 1]", fillcolor="#9cf2c0"] ;
823 -> 825 ;
826 [label="gini = 0.0\nsamples = 1\nvalue = [0, 0, 1]", fillcolor="#8139e5"] ;
825 -> 826 ;
827 [label="gini = 0.0\nsamples = 2\nvalue = [0, 2, 0]", fillcolor="#39e581"] ;
825 -> 827 ;
828 [label="Hair_Loss <= 0.5\ngini = 0.18\nsamples = 10\nvalue = [0, 9, 1]", fillcolor="#4fe88f"] ;
822 -> 828 ;
829 [label="Age <= 88.0\ngini = 0.5\nsamples = 2\nvalue = [0, 1, 1]", fillcolor="#ffffff"] ;
828 -> 829 ;
830 [label="gini = 0.0\nsamples = 1\nvalue = [0, 0, 1]", fillcolor="#8139e5"] ;
829 -> 830 ;
831 [label="gini = 0.0\nsamples = 1\nvalue = [0, 1, 0]", fillcolor="#39e581"] ;
829 -> 831 ;
832 [label="gini = 0.0\nsamples = 8\nvalue = [0, 8, 0]", fillcolor="#39e581"] ;
828 -> 832 ;
833 [label="Weight_Change <= 0.5\ngini = 0.653\nsamples = 259\nvalue = [66, 108, 85]", fillcolor="#e5fcee"] ;
595 -> 833 ;
834 [label="Age <= 82.0\ngini = 0.615\nsamples = 149\nvalue = [51, 73, 25]", fillcolor="#d3f9e3"] ;
833 -> 834 ;
835 [label="Hair_Loss <= 0.5\ngini = 0.639\nsamples = 127\nvalue = [50, 52, 25]", fillcolor="#fafefc"] ;
834 -> 835 ;
836 [label="Age <= 29.5\ngini = 0.634\nsamples = 82\nvalue = [38, 27, 17]", fillcolor="#fae6d7"] ;
835 -> 836 ;
837 [label="Gender <= 0.5\ngini = 0.18\nsamples = 10\nvalue = [9, 0, 1]", fillcolor="#e88f4f"] ;
836 -> 837 ;
838 [label="Age <= 25.5\ngini = 0.5\nsamples = 2\nvalue = [1, 0, 1]", fillcolor="#ffffff"] ;
837 -> 838 ;
839 [label="gini = 0.0\nsamples = 1\nvalue = [0, 0, 1]", fillcolor="#8139e5"] ;
838 -> 839 ;
840 [label="gini = 0.0\nsamples = 1\nvalue = [1, 0, 0]", fillcolor="#e58139"] ;
838 -> 840 ;
841 [label="gini = 0.0\nsamples = 8\nvalue = [8, 0, 0]", fillcolor="#e58139"] ;
837 -> 841 ;
842 [label="Age <= 54.5\ngini = 0.648\nsamples = 72\nvalue = [29, 27, 16]", fillcolor="#fef9f6"] ;
836 -> 842 ;
843 [label="Pregnancy <= 0.5\ngini = 0.56\nsamples = 30\nvalue = [6, 18, 6]", fillcolor="#9cf2c0"] ;
842 -> 843 ;
844 [label="Increased_Sweating <= 0.5\ngini = 0.39\nsamples = 21\nvalue = [2, 16, 3]", fillcolor="#70eca4"] ;
843 -> 844 ;
845 [label="Age <= 33.5\ngini = 0.153\nsamples = 12\nvalue = [0, 11, 1]", fillcolor="#4be78c"] ;
844 -> 845 ;
846 [label="Age <= 32.0\ngini = 0.444\nsamples = 3\nvalue = [0, 2, 1]", fillcolor="#9cf2c0"] ;
845 -> 846 ;
847 [label="gini = 0.0\nsamples = 2\nvalue = [0, 2, 0]", fillcolor="#39e581"] ;
846 -> 847 ;
848 [label="gini = 0.0\nsamples = 1\nvalue = [0, 0, 1]", fillcolor="#8139e5"] ;
846 -> 848 ;
849 [label="gini = 0.0\nsamples = 9\nvalue = [0, 9, 0]", fillcolor="#39e581"] ;
845 -> 849 ;
850 [label="Family_History_of_Thyroid <= 0.5\ngini = 0.593\nsamples = 9\nvalue = [2, 5, 2]", fillcolor="#aaf4c9"] ;
844 -> 850 ;
851 [label="Gender <= 0.5\ngini = 0.5\nsamples = 4\nvalue = [2, 0, 2]", fillcolor="#ffffff"] ;
850 -> 851 ;
852 [label="gini = 0.0\nsamples = 2\nvalue = [0, 0, 2]", fillcolor="#8139e5"] ;
851 -> 852 ;
853 [label="gini = 0.0\nsamples = 2\nvalue = [2, 0, 0]", fillcolor="#e58139"] ;
851 -> 853 ;
854 [label="gini = 0.0\nsamples = 5\nvalue = [0, 5, 0]", fillcolor="#39e581"] ;
850 -> 854 ;
855 [label="Dry_or_Itchy_Skin <= 0.5\ngini = 0.642\nsamples = 9\nvalue = [4, 2, 3]", fillcolor="#fbeade"] ;
843 -> 855 ;
856 [label="Heart_Rate_Changes <= 0.5\ngini = 0.444\nsamples = 6\nvalue = [4, 2, 0]", fillcolor="#f2c09c"] ;
855 -> 856 ;
857 [label="gini = 0.0\nsamples = 4\nvalue = [4, 0, 0]", fillcolor="#e58139"] ;
856 -> 857 ;
858 [label="gini = 0.0\nsamples = 2\nvalue = [0, 2, 0]", fillcolor="#39e581"] ;
856 -> 858 ;
859 [label="gini = 0.0\nsamples = 3\nvalue = [0, 0, 3]", fillcolor="#8139e5"] ;
855 -> 859 ;
860 [label="Heart_Rate_Changes <= 0.5\ngini = 0.598\nsamples = 42\nvalue = [23.0, 9.0, 10.0]", fillcolor="#f4ccaf"] ;
842 -> 860 ;
861 [label="Difficulty_Concentrating_or_Memory_Problems <= 0.5\ngini = 0.406\nsamples = 24\nvalue = [18, 3, 3]", fillcolor="#eca572"] ;
860 -> 861 ;
862 [label="Increased_Sweating <= 0.5\ngini = 0.265\nsamples = 20\nvalue = [17, 1, 2]", fillcolor="#e9965a"] ;
861 -> 862 ;
863 [label="gini = 0.0\nsamples = 12\nvalue = [12, 0, 0]", fillcolor="#e58139"] ;
862 -> 863 ;
864 [label="Family_History_of_Thyroid <= 0.5\ngini = 0.531\nsamples = 8\nvalue = [5, 1, 2]", fillcolor="#f2c09c"] ;
862 -> 864 ;
865 [label="Gender <= 0.5\ngini = 0.444\nsamples = 3\nvalue = [0, 1, 2]", fillcolor="#c09cf2"] ;
864 -> 865 ;
866 [label="gini = 0.0\nsamples = 2\nvalue = [0, 0, 2]", fillcolor="#8139e5"] ;
865 -> 866 ;
867 [label="gini = 0.0\nsamples = 1\nvalue = [0, 1, 0]", fillcolor="#39e581"] ;
865 -> 867 ;
868 [label="gini = 0.0\nsamples = 5\nvalue = [5, 0, 0]", fillcolor="#e58139"] ;
864 -> 868 ;
869 [label="Gender <= 0.5\ngini = 0.625\nsamples = 4\nvalue = [1, 2, 1]", fillcolor="#bdf6d5"] ;
861 -> 869 ;
870 [label="gini = 0.0\nsamples = 1\nvalue = [0, 0, 1]", fillcolor="#8139e5"] ;
869 -> 870 ;
871 [label="Family_History_of_Thyroid <= 0.5\ngini = 0.444\nsamples = 3\nvalue = [1, 2, 0]", fillcolor="#9cf2c0"] ;
869 -> 871 ;
872 [label="gini = 0.0\nsamples = 1\nvalue = [1, 0, 0]", fillcolor="#e58139"] ;
871 -> 872 ;
873 [label="gini = 0.0\nsamples = 2\nvalue = [0, 2, 0]", fillcolor="#39e581"] ;
871 -> 873 ;
874 [label="Age <= 61.5\ngini = 0.66\nsamples = 18\nvalue = [5, 6, 7]", fillcolor="#f4eefd"] ;
860 -> 874 ;
875 [label="Increased_Sweating <= 0.5\ngini = 0.408\nsamples = 7\nvalue = [2, 0, 5]", fillcolor="#b388ef"] ;
874 -> 875 ;
876 [label="gini = 0.0\nsamples = 2\nvalue = [2, 0, 0]", fillcolor="#e58139"] ;
875 -> 876 ;
877 [label="gini = 0.0\nsamples = 5\nvalue = [0, 0, 5]", fillcolor="#8139e5"] ;
875 -> 877 ;
878 [label="Constipation_or_More_Bowel_Movements <= 0.5\ngini = 0.595\nsamples = 11\nvalue = [3, 6, 2]", fillcolor="#b5f5d0"] ;
874 -> 878 ;
879 [label="Age <= 64.0\ngini = 0.656\nsamples = 8\nvalue = [3, 3, 2]", fillcolor="#ffffff"] ;
878 -> 879 ;
880 [label="gini = 0.0\nsamples = 2\nvalue = [0, 2, 0]", fillcolor="#39e581"] ;
879 -> 880 ;
881 [label="Difficulty_Concentrating_or_Memory_Problems <= 0.5\ngini = 0.611\nsamples = 6\nvalue = [3, 1, 2]", fillcolor="#f8e0ce"] ;
879 -> 881 ;
882 [label="gini = 0.0\nsamples = 1\nvalue = [0, 1, 0]", fillcolor="#39e581"] ;
881 -> 882 ;
883 [label="Increased_Sweating <= 0.5\ngini = 0.48\nsamples = 5\nvalue = [3, 0, 2]", fillcolor="#f6d5bd"] ;
881 -> 883 ;
884 [label="Dry_or_Itchy_Skin <= 0.5\ngini = 0.444\nsamples = 3\nvalue = [1, 0, 2]", fillcolor="#c09cf2"] ;
883 -> 884 ;
885 [label="gini = 0.0\nsamples = 2\nvalue = [0, 0, 2]", fillcolor="#8139e5"] ;
884 -> 885 ;
886 [label="gini = 0.0\nsamples = 1\nvalue = [1, 0, 0]", fillcolor="#e58139"] ;
884 -> 886 ;
887 [label="gini = 0.0\nsamples = 2\nvalue = [2, 0, 0]", fillcolor="#e58139"] ;
883 -> 887 ;
888 [label="gini = 0.0\nsamples = 3\nvalue = [0, 3, 0]", fillcolor="#39e581"] ;
878 -> 888 ;
889 [label="Increased_Sweating <= 0.5\ngini = 0.589\nsamples = 45\nvalue = [12, 25, 8]", fillcolor="#b1f5cd"] ;
835 -> 889 ;
890 [label="Gender <= 0.5\ngini = 0.498\nsamples = 32\nvalue = [8, 21, 3]", fillcolor="#94f1bb"] ;
889 -> 890 ;
891 [label="Age <= 74.5\ngini = 0.133\nsamples = 14\nvalue = [1, 13, 0]", fillcolor="#48e78b"] ;
890 -> 891 ;
892 [label="gini = 0.0\nsamples = 13\nvalue = [0, 13, 0]", fillcolor="#39e581"] ;
891 -> 892 ;
893 [label="gini = 0.0\nsamples = 1\nvalue = [1, 0, 0]", fillcolor="#e58139"] ;
891 -> 893 ;
894 [label="Age <= 32.0\ngini = 0.623\nsamples = 18\nvalue = [7, 8, 3]", fillcolor="#edfdf4"] ;
890 -> 894 ;
895 [label="Difficulty_Concentrating_or_Memory_Problems <= 0.5\ngini = 0.48\nsamples = 5\nvalue = [0, 3, 2]", fillcolor="#bdf6d5"] ;
894 -> 895 ;
896 [label="gini = 0.0\nsamples = 3\nvalue = [0, 3, 0]", fillcolor="#39e581"] ;
895 -> 896 ;
897 [label="gini = 0.0\nsamples = 2\nvalue = [0, 0, 2]", fillcolor="#8139e5"] ;
895 -> 897 ;
898 [label="Age <= 47.0\ngini = 0.556\nsamples = 13\nvalue = [7, 5, 1]", fillcolor="#f8e0ce"] ;
894 -> 898 ;
899 [label="gini = 0.0\nsamples = 6\nvalue = [6, 0, 0]", fillcolor="#e58139"] ;
898 -> 899 ;
900 [label="Age <= 77.0\ngini = 0.449\nsamples = 7\nvalue = [1, 5, 1]", fillcolor="#7beeab"] ;
898 -> 900 ;
901 [label="Dry_or_Itchy_Skin <= 0.5\ngini = 0.278\nsamples = 6\nvalue = [0, 5, 1]", fillcolor="#61ea9a"] ;
900 -> 901 ;
902 [label="gini = 0.0\nsamples = 5\nvalue = [0, 5, 0]", fillcolor="#39e581"] ;
901 -> 902 ;
903 [label="gini = 0.0\nsamples = 1\nvalue = [0, 0, 1]", fillcolor="#8139e5"] ;
901 -> 903 ;
904 [label="gini = 0.0\nsamples = 1\nvalue = [1, 0, 0]", fillcolor="#e58139"] ;
900 -> 904 ;
905 [label="Dry_or_Itchy_Skin <= 0.5\ngini = 0.663\nsamples = 13\nvalue = [4, 4, 5]", fillcolor="#f1e9fc"] ;
889 -> 905 ;
906 [label="Heart_Rate_Changes <= 0.5\ngini = 0.594\nsamples = 8\nvalue = [4, 3, 1]", fillcolor="#fae6d7"] ;
905 -> 906 ;
907 [label="Age <= 77.5\ngini = 0.5\nsamples = 6\nvalue = [4, 1, 1]", fillcolor="#efb388"] ;
906 -> 907 ;
908 [label="Age <= 65.0\ngini = 0.32\nsamples = 5\nvalue = [4, 1, 0]", fillcolor="#eca06a"] ;
907 -> 908 ;
909 [label="gini = 0.0\nsamples = 3\nvalue = [3, 0, 0]", fillcolor="#e58139"] ;
908 -> 909 ;
910 [label="Age <= 76.0\ngini = 0.5\nsamples = 2\nvalue = [1, 1, 0]", fillcolor="#ffffff"] ;
908 -> 910 ;
911 [label="gini = 0.0\nsamples = 1\nvalue = [0, 1, 0]", fillcolor="#39e581"] ;
910 -> 911 ;
912 [label="gini = 0.0\nsamples = 1\nvalue = [1, 0, 0]", fillcolor="#e58139"] ;
910 -> 912 ;
913 [label="gini = 0.0\nsamples = 1\nvalue = [0, 0, 1]", fillcolor="#8139e5"] ;
907 -> 913 ;
914 [label="gini = 0.0\nsamples = 2\nvalue = [0, 2, 0]", fillcolor="#39e581"] ;
906 -> 914 ;
915 [label="Difficulty_Concentrating_or_Memory_Problems <= 0.5\ngini = 0.32\nsamples = 5\nvalue = [0, 1, 4]", fillcolor="#a06aec"] ;
905 -> 915 ;
916 [label="gini = 0.0\nsamples = 1\nvalue = [0, 1, 0]", fillcolor="#39e581"] ;
915 -> 916 ;
917 [label="gini = 0.0\nsamples = 4\nvalue = [0, 0, 4]", fillcolor="#8139e5"] ;
915 -> 917 ;
918 [label="Age <= 89.5\ngini = 0.087\nsamples = 22\nvalue = [1, 21, 0]", fillcolor="#42e687"] ;
834 -> 918 ;
919 [label="gini = 0.0\nsamples = 20\nvalue = [0, 20, 0]", fillcolor="#39e581"] ;
918 -> 919 ;
920 [label="Difficulty_Concentrating_or_Memory_Problems <= 0.5\ngini = 0.5\nsamples = 2\nvalue = [1, 1, 0]", fillcolor="#ffffff"] ;
918 -> 920 ;
921 [label="gini = 0.0\nsamples = 1\nvalue = [0, 1, 0]", fillcolor="#39e581"] ;
920 -> 921 ;
922 [label="gini = 0.0\nsamples = 1\nvalue = [1, 0, 0]", fillcolor="#e58139"] ;
920 -> 922 ;
923 [label="Difficulty_Concentrating_or_Memory_Problems <= 0.5\ngini = 0.583\nsamples = 110\nvalue = [15.0, 35.0, 60.0]", fillcolor="#d5bdf6"] ;
833 -> 923 ;
924 [label="Constipation_or_More_Bowel_Movements <= 0.5\ngini = 0.635\nsamples = 59\nvalue = [14, 17, 28]", fillcolor="#decbf8"] ;
923 -> 924 ;
925 [label="Age <= 48.5\ngini = 0.661\nsamples = 28\nvalue = [11, 8, 9]", fillcolor="#fcf2ea"] ;
924 -> 925 ;
926 [label="Hair_Loss <= 0.5\ngini = 0.529\nsamples = 11\nvalue = [2, 2, 7]", fillcolor="#b991f1"] ;
925 -> 926 ;
927 [label="Heart_Rate_Changes <= 0.5\ngini = 0.64\nsamples = 5\nvalue = [2, 2, 1]", fillcolor="#ffffff"] ;
926 -> 927 ;
928 [label="Family_History_of_Thyroid <= 0.5\ngini = 0.5\nsamples = 4\nvalue = [2, 2, 0]", fillcolor="#ffffff"] ;
927 -> 928 ;
929 [label="Age <= 21.5\ngini = 0.444\nsamples = 3\nvalue = [1, 2, 0]", fillcolor="#9cf2c0"] ;
928 -> 929 ;
930 [label="gini = 0.0\nsamples = 1\nvalue = [1, 0, 0]", fillcolor="#e58139"] ;
929 -> 930 ;
